{"learner":{"attributes":{},"feature_names":[],"feature_types":[],"gradient_booster":{"model":{"gbtree_model_param":{"num_parallel_tree":"1","num_trees":"1000"},"iteration_indptr":[0,1,2,3,4,5,6,7,8,9,10,11,12,13,14,15,16,17,18,19,20,21,22,23,24,25,26,27,28,29,30,31,32,33,34,35,36,37,38,39,40,41,42,43,44,45,46,47,48,49,50,51,52,53,54,55,56,57,58,59,60,61,62,63,64,65,66,67,68,69,70,71,72,73,74,75,76,77,78,79,80,81,82,83,84,85,86,87,88,89,90,91,92,93,94,95,96,97,98,99,100,101,102,103,104,105,106,107,108,109,110,111,112,113,114,115,116,117,118,119,120,121,122,123,124,125,126,127,128,129,130,131,132,133,134,135,136,137,138,139,140,141,142,143,144,145,146,147,148,149,150,151,152,153,154,155,156,157,158,159,160,161,162,163,164,165,166,167,168,169,170,171,172,173,174,175,176,177,178,179,180,181,182,183,184,185,186,187,188,189,190,191,192,193,194,195,196,197,198,199,200,201,202,203,204,205,206,207,208,209,210,211,212,213,214,215,216,217,218,219,220,221,222,223,224,225,226,227,228,229,230,231,232,233,234,235,236,237,238,239,240,241,242,243,244,245,246,247,248,249,250,251,252,253,254,255,256,257,258,259,260,261,262,263,264,265,266,267,268,269,270,271,272,273,274,275,276,277,278,279,280,281,282,283,284,285,286,287,288,289,290,291,292,293,294,295,296,297,298,299,300,301,302,303,304,305,306,307,308,309,310,311,312,313,314,315,316,317,318,319,320,321,322,323,324,325,326,327,328,329,330,331,332,333,334,335,336,337,338,339,340,341,342,343,344,345,346,347,348,349,350,351,352,353,354,355,356,357,358,359,360,361,362,363,364,365,366,367,368,369,370,371,372,373,374,375,376,377,378,379,380,381,382,383,384,385,386,387,388,389,390,391,392,393,394,395,396,397,398,399,400,401,402,403,404,405,406,407,408,409,410,411,412,413,414,415,416,417,418,419,420,421,422,423,424,425,426,427,428,429,430,431,432,433,434,435,436,437,438,439,440,441,442,443,444,445,446,447,448,449,450,451,452,453,454,455,456,457,458,459,460,461,462,463,464,465,466,467,468,469,470,471,472,473,474,475,476,477,478,479,480,481,482,483,484,485,486,487,488,489,490,491,492,493,494,495,496,497,498,499,500,501,502,503,504,505,506,507,508,509,510,511,512,513,514,515,516,517,518,519,520,521,522,523,524,525,526,527,528,529,530,531,532,533,534,535,536,537,538,539,540,541,542,543,544,545,546,547,548,549,550,551,552,553,554,555,556,557,558,559,560,561,562,563,564,565,566,567,568,569,570,571,572,573,574,575,576,577,578,579,580,581,582,583,584,585,586,587,588,589,590,591,592,593,594,595,596,597,598,599,600,601,602,603,604,605,606,607,608,609,610,611,612,613,614,615,616,617,618,619,620,621,622,623,624,625,626,627,628,629,630,631,632,633,634,635,636,637,638,639,640,641,642,643,644,645,646,647,648,649,650,651,652,653,654,655,656,657,658,659,660,661,662,663,664,665,666,667,668,669,670,671,672,673,674,675,676,677,678,679,680,681,682,683,684,685,686,687,688,689,690,691,692,693,694,695,696,697,698,699,700,701,702,703,704,705,706,707,708,709,710,711,712,713,714,715,716,717,718,719,720,721,722,723,724,725,726,727,728,729,730,731,732,733,734,735,736,737,738,739,740,741,742,743,744,745,746,747,748,749,750,751,752,753,754,755,756,757,758,759,760,761,762,763,764,765,766,767,768,769,770,771,772,773,774,775,776,777,778,779,780,781,782,783,784,785,786,787,788,789,790,791,792,793,794,795,796,797,798,799,800,801,802,803,804,805,806,807,808,809,810,811,812,813,814,815,816,817,818,819,820,821,822,823,824,825,826,827,828,829,830,831,832,833,834,835,836,837,838,839,840,841,842,843,844,845,846,847,848,849,850,851,852,853,854,855,856,857,858,859,860,861,862,863,864,865,866,867,868,869,870,871,872,873,874,875,876,877,878,879,880,881,882,883,884,885,886,887,888,889,890,891,892,893,894,895,896,897,898,899,900,901,902,903,904,905,906,907,908,909,910,911,912,913,914,915,916,917,918,919,920,921,922,923,924,925,926,927,928,929,930,931,932,933,934,935,936,937,938,939,940,941,942,943,944,945,946,947,948,949,950,951,952,953,954,955,956,957,958,959,960,961,962,963,964,965,966,967,968,969,970,971,972,973,974,975,976,977,978,979,980,981,982,983,984,985,986,987,988,989,990,991,992,993,994,995,996,997,998,999,1000],"tree_info":[0,0,0,0,0,0,0,0,0,0,0,0,0,0,0,0,0,0,0,0,0,0,0,0,0,0,0,0,0,0,0,0,0,0,0,0,0,0,0,0,0,0,0,0,0,0,0,0,0,0,0,0,0,0,0,0,0,0,0,0,0,0,0,0,0,0,0,0,0,0,0,0,0,0,0,0,0,0,0,0,0,0,0,0,0,0,0,0,0,0,0,0,0,0,0,0,0,0,0,0,0,0,0,0,0,0,0,0,0,0,0,0,0,0,0,0,0,0,0,0,0,0,0,0,0,0,0,0,0,0,0,0,0,0,0,0,0,0,0,0,0,0,0,0,0,0,0,0,0,0,0,0,0,0,0,0,0,0,0,0,0,0,0,0,0,0,0,0,0,0,0,0,0,0,0,0,0,0,0,0,0,0,0,0,0,0,0,0,0,0,0,0,0,0,0,0,0,0,0,0,0,0,0,0,0,0,0,0,0,0,0,0,0,0,0,0,0,0,0,0,0,0,0,0,0,0,0,0,0,0,0,0,0,0,0,0,0,0,0,0,0,0,0,0,0,0,0,0,0,0,0,0,0,0,0,0,0,0,0,0,0,0,0,0,0,0,0,0,0,0,0,0,0,0,0,0,0,0,0,0,0,0,0,0,0,0,0,0,0,0,0,0,0,0,0,0,0,0,0,0,0,0,0,0,0,0,0,0,0,0,0,0,0,0,0,0,0,0,0,0,0,0,0,0,0,0,0,0,0,0,0,0,0,0,0,0,0,0,0,0,0,0,0,0,0,0,0,0,0,0,0,0,0,0,0,0,0,0,0,0,0,0,0,0,0,0,0,0,0,0,0,0,0,0,0,0,0,0,0,0,0,0,0,0,0,0,0,0,0,0,0,0,0,0,0,0,0,0,0,0,0,0,0,0,0,0,0,0,0,0,0,0,0,0,0,0,0,0,0,0,0,0,0,0,0,0,0,0,0,0,0,0,0,0,0,0,0,0,0,0,0,0,0,0,0,0,0,0,0,0,0,0,0,0,0,0,0,0,0,0,0,0,0,0,0,0,0,0,0,0,0,0,0,0,0,0,0,0,0,0,0,0,0,0,0,0,0,0,0,0,0,0,0,0,0,0,0,0,0,0,0,0,0,0,0,0,0,0,0,0,0,0,0,0,0,0,0,0,0,0,0,0,0,0,0,0,0,0,0,0,0,0,0,0,0,0,0,0,0,0,0,0,0,0,0,0,0,0,0,0,0,0,0,0,0,0,0,0,0,0,0,0,0,0,0,0,0,0,0,0,0,0,0,0,0,0,0,0,0,0,0,0,0,0,0,0,0,0,0,0,0,0,0,0,0,0,0,0,0,0,0,0,0,0,0,0,0,0,0,0,0,0,0,0,0,0,0,0,0,0,0,0,0,0,0,0,0,0,0,0,0,0,0,0,0,0,0,0,0,0,0,0,0,0,0,0,0,0,0,0,0,0,0,0,0,0,0,0,0,0,0,0,0,0,0,0,0,0,0,0,0,0,0,0,0,0,0,0,0,0,0,0,0,0,0,0,0,0,0,0,0,0,0,0,0,0,0,0,0,0,0,0,0,0,0,0,0,0,0,0,0,0,0,0,0,0,0,0,0,0,0,0,0,0,0,0,0,0,0,0,0,0,0,0,0,0,0,0,0,0,0,0,0,0,0,0,0,0,0,0,0,0,0,0,0,0,0,0,0,0,0,0,0,0,0,0,0,0,0,0,0,0,0,0,0,0,0,0,0,0,0,0,0,0,0,0,0,0,0,0,0,0,0,0,0,0,0,0,0,0,0,0,0,0,0,0,0,0,0,0,0,0,0,0,0,0,0,0,0,0,0,0,0,0,0,0,0,0,0,0,0,0,0,0,0,0,0,0,0,0,0,0,0,0,0,0,0,0,0,0,0,0,0,0,0,0,0,0,0,0,0,0,0,0,0,0,0,0,0,0,0,0,0,0,0,0,0,0,0,0,0,0,0,0,0,0,0,0,0,0,0,0,0,0,0,0,0,0,0,0,0,0,0,0,0,0,0,0,0,0,0,0,0,0,0,0,0,0,0,0,0,0,0,0,0,0,0,0,0,0,0,0,0,0,0,0,0,0,0,0,0,0,0,0,0,0,0,0,0,0,0,0,0,0,0,0,0,0,0,0,0,0,0,0,0,0,0,0,0,0,0,0,0,0,0,0,0,0,0,0,0,0,0,0,0,0,0,0,0,0,0,0,0,0,0,0,0,0,0,0],"trees":[{"base_weights":[4.8573073E-3,-1.6640811E0,7.0115617E-3,-1.1991418E-2,1.2069672E-3],"categories":[],"categories_nodes":[],"categories_segments":[],"categories_sizes":[],"default_left":[0,0,0,0,0],"id":0,"left_children":[1,3,-1,-1,-1],"loss_changes":[7.5771E1,2.1312038E1,0E0,0E0,0E0],"parents":[2147483647,0,0,1,1],"right_children":[2,4,-1,-1,-1],"split_conditions":[3.176912E0,1.3180262E0,7.0115617E-3,-1.1991418E-2,1.2069672E-3],"split_indices":[1616,598,0,0,0],"split_type":[0,0,0,0,0],"sum_hessian":[3.048871E1,1.3804483E1,1.6684227E1,9.781984E0,4.0224986E0],"tree_param":{"num_deleted":"0","num_feature":"2048","num_nodes":"5","size_leaf_vector":"1"}},{"base_weights":[5.7208072E-3,-1.7084749E0,6.974905E-3,-1.26225455E-2,1.2186904E-3],"categories":[],"categories_nodes":[],"categories_segments":[],"categories_sizes":[],"default_left":[0,0,0,0,0],"id":1,"left_children":[1,3,-1,-1,-1],"loss_changes":[7.431998E1,2.2891708E1,0E0,0E0,0E0],"parents":[2147483647,0,0,1,1],"right_children":[2,4,-1,-1,-1],"split_conditions":[3.176912E0,4.099602E-1,6.974905E-3,-1.26225455E-2,1.2186904E-3],"split_indices":[1616,403,0,0,0],"split_type":[0,0,0,0,0],"sum_hessian":[2.9208235E1,1.2968968E1,1.6239265E1,8.942804E0,4.0261645E0],"tree_param":{"num_deleted":"0","num_feature":"2048","num_nodes":"5","size_leaf_vector":"1"}},{"base_weights":[4.997102E-3,-1.7149411E0,6.972909E-3,-1.2577724E-2,1.2341137E-3],"categories":[],"categories_nodes":[],"categories_segments":[],"categories_sizes":[],"default_left":[0,0,0,0,0],"id":2,"left_children":[1,3,-1,-1,-1],"loss_changes":[7.61061E1,2.2991505E1,0E0,0E0,0E0],"parents":[2147483647,0,0,1,1],"right_children":[2,4,-1,-1,-1],"split_conditions":[3.176912E0,1.1197323E0,6.972909E-3,-1.2577724E-2,1.2341137E-3],"split_indices":[1616,802,0,0,0],"split_type":[0,0,0,0,0],"sum_hessian":[2.984422E1,1.3228947E1,1.6615273E1,9.198011E0,4.030935E0],"tree_param":{"num_deleted":"0","num_feature":"2048","num_nodes":"5","size_leaf_vector":"1"}},{"base_weights":[4.430062E-3,-1.914991E0,7.0010177E-3,-1.2395986E-2,-2.4686952E-3],"categories":[],"categories_nodes":[],"categories_segments":[],"categories_sizes":[],"default_left":[0,0,0,0,0],"id":3,"left_children":[1,3,-1,-1,-1],"loss_changes":[8.7014046E1,9.710468E0,0E0,0E0,0E0],"parents":[2147483647,0,0,1,1],"right_children":[2,4,-1,-1,-1],"split_conditions":[3.176912E0,1.3426477E-1,7.0010177E-3,-1.2395986E-2,-2.4686952E-3],"split_indices":[1616,1503,0,0,0],"split_type":[0,0,0,0,0],"sum_hessian":[3.0480173E1,1.26732235E1,1.780695E1,8.5339985E0,4.139225E0],"tree_param":{"num_deleted":"0","num_feature":"2048","num_nodes":"5","size_leaf_vector":"1"}},{"base_weights":[2.938586E-2,-2.001627E0,1.1506639E0,-1.1733111E-2,-5.6725214E-3,5.20168E-4,7.167678E-3],"categories":[],"categories_nodes":[],"categories_segments":[],"categories_sizes":[],"default_left":[0,0,0,0,0,0,0],"id":4,"left_children":[1,3,5,-1,-1,-1,-1],"loss_changes":[6.911756E1,5.3351974E-1,5.6215897E0,0E0,0E0,0E0,0E0],"parents":[2147483647,0,0,1,1,2,2],"right_children":[2,4,6,-1,-1,-1,-1],"split_conditions":[2.1154916E0,3.7596826E-2,1.0882788E-1,-1.1733111E-2,-5.6725214E-3,5.20168E-4,7.167678E-3],"split_indices":[1616,2014,183,0,0,0,0],"split_type":[0,0,0,0,0,0,0],"sum_hessian":[2.834264E1,9.799105E0,1.8543535E1,5.7812243E0,4.0178804E0,4.243956E0,1.4299579E1],"tree_param":{"num_deleted":"0","num_feature":"2048","num_nodes":"7","size_leaf_vector":"1"}},{"base_weights":[-7.761349E-2,-1.0758435E-2,1.0153816E0,6.8712044E-3,-1.2704886E-3],"categories":[],"categories_nodes":[],"categories_segments":[],"categories_sizes":[],"default_left":[0,0,0,0,0],"id":5,"left_children":[1,-1,3,-1,-1],"loss_changes":[6.986218E1,0E0,9.573683E0,0E0,0E0],"parents":[2147483647,0,0,2,2],"right_children":[2,-1,4,-1,-1],"split_conditions":[6.53185E-1,-1.0758435E-2,5.589055E0,6.8712044E-3,-1.2704886E-3],"split_indices":[598,0,812,0,0],"split_type":[0,0,0,0,0],"sum_hessian":[2.8848902E1,9.624993E0,1.9223907E1,1.4929077E1,4.2948313E0],"tree_param":{"num_deleted":"0","num_feature":"2048","num_nodes":"5","size_leaf_vector":"1"}},{"base_weights":[-1.0005709E-1,-1.9021035E0,6.8917954E-3,-2.4411138E-3,-1.2239614E-2],"categories":[],"categories_nodes":[],"categories_segments":[],"categories_sizes":[],"default_left":[0,0,0,0,0],"id":6,"left_children":[1,3,-1,-1,-1],"loss_changes":[8.271394E1,9.557064E0,0E0,0E0,0E0],"parents":[2147483647,0,0,1,1],"right_children":[2,4,-1,-1,-1],"split_conditions":[3.176912E0,8.609366E-2,6.8917954E-3,-2.4411138E-3,-1.2239614E-2],"split_indices":[1616,997,0,0,0],"split_type":[0,0,0,0,0],"sum_hessian":[2.906069E1,1.2970764E1,1.6089926E1,4.145396E0,8.825368E0],"tree_param":{"num_deleted":"0","num_feature":"2048","num_nodes":"5","size_leaf_vector":"1"}},{"base_weights":[2.8200807E-2,-1.112658E-2,9.998171E-1,-2.534409E-3,6.9193034E-3],"categories":[],"categories_nodes":[],"categories_segments":[],"categories_sizes":[],"default_left":[0,0,0,0,0],"id":7,"left_children":[1,-1,3,-1,-1],"loss_changes":[6.783119E1,0E0,1.3228161E1,0E0,0E0],"parents":[2147483647,0,0,2,2],"right_children":[2,-1,4,-1,-1],"split_conditions":[7.103715E-1,-1.112658E-2,1.3938826E-2,-2.534409E-3,6.9193034E-3],"split_indices":[598,0,614,0,0],"split_type":[0,0,0,0,0],"sum_hessian":[2.896891E1,8.335459E0,2.0633451E1,4.1207657E0,1.6512686E1],"tree_param":{"num_deleted":"0","num_feature":"2048","num_nodes":"5","size_leaf_vector":"1"}},{"base_weights":[7.494184E-3,-1.5320774E0,7.1116826E-3,-1.2119847E-2,2.43587E-3],"categories":[],"categories_nodes":[],"categories_segments":[],"categories_sizes":[],"default_left":[0,0,0,0,0],"id":8,"left_children":[1,3,-1,-1,-1],"loss_changes":[6.515768E1,2.6997482E1,0E0,0E0,0E0],"parents":[2147483647,0,0,1,1],"right_children":[2,4,-1,-1,-1],"split_conditions":[3.176912E0,1.1644607E-1,7.1116826E-3,-1.2119847E-2,2.43587E-3],"split_indices":[1616,183,0,0,0],"split_type":[0,0,0,0,0],"sum_hessian":[2.7912941E1,1.3324191E1,1.458875E1,9.106446E0,4.217744E0],"tree_param":{"num_deleted":"0","num_feature":"2048","num_nodes":"5","size_leaf_vector":"1"}},{"base_weights":[-1.09126195E-1,-1.919368E0,7.0786052E-3,-1.181268E-2,-4.147343E-3],"categories":[],"categories_nodes":[],"categories_segments":[],"categories_sizes":[],"default_left":[0,0,0,0,0],"id":9,"left_children":[1,3,-1,-1,-1],"loss_changes":[7.684905E1,4.14534E0,0E0,0E0,0E0],"parents":[2147483647,0,0,1,1],"right_children":[2,4,-1,-1,-1],"split_conditions":[3.0663912E0,1.7166565E-1,7.0786052E-3,-1.181268E-2,-4.147343E-3],"split_indices":[1616,1370,0,0,0],"split_type":[0,0,0,0,0],"sum_hessian":[2.585418E1,1.1705581E1,1.41486E1,7.4851685E0,4.220412E0],"tree_param":{"num_deleted":"0","num_feature":"2048","num_nodes":"5","size_leaf_vector":"1"}},{"base_weights":[1.3168441E-1,-1.5231295E0,6.8370895E-3,-1.1780127E-2,1.2946549E-3],"categories":[],"categories_nodes":[],"categories_segments":[],"categories_sizes":[],"default_left":[0,0,0,0,0],"id":10,"left_children":[1,3,-1,-1,-1],"loss_changes":[6.218274E1,1.9977644E1,0E0,0E0,0E0],"parents":[2147483647,0,0,1,1],"right_children":[2,4,-1,-1,-1],"split_conditions":[3.176912E0,1.1837411E0,6.8370895E-3,-1.1780127E-2,1.2946549E-3],"split_indices":[1616,598,0,0,0],"split_type":[0,0,0,0,0],"sum_hessian":[2.8390812E1,1.2034428E1,1.6356384E1,7.9856443E0,4.0487833E0],"tree_param":{"num_deleted":"0","num_feature":"2048","num_nodes":"5","size_leaf_vector":"1"}},{"base_weights":[1.489319E-1,-1.5160183E0,6.8356004E-3,-1.1707233E-2,1.2807861E-3],"categories":[],"categories_nodes":[],"categories_segments":[],"categories_sizes":[],"default_left":[0,0,0,0,0],"id":11,"left_children":[1,3,-1,-1,-1],"loss_changes":[6.2457554E1,1.9710928E1,0E0,0E0,0E0],"parents":[2147483647,0,0,1,1],"right_children":[2,4,-1,-1,-1],"split_conditions":[3.0663912E0,1.2194365E0,6.8356004E-3,-1.1707233E-2,1.2807861E-3],"split_indices":[1616,598,0,0,0],"split_type":[0,0,0,0,0],"sum_hessian":[2.8773094E1,1.2050485E1,1.672261E1,8.005957E0,4.044528E0],"tree_param":{"num_deleted":"0","num_feature":"2048","num_nodes":"5","size_leaf_vector":"1"}},{"base_weights":[-9.5434956E-2,-1.0464599E-2,1.0832369E0,7.0615835E-3,-6.757669E-4],"categories":[],"categories_nodes":[],"categories_segments":[],"categories_sizes":[],"default_left":[0,0,0,0,0],"id":12,"left_children":[1,-1,3,-1,-1],"loss_changes":[7.304525E1,0E0,8.045906E0,0E0,0E0],"parents":[2147483647,0,0,2,2],"right_children":[2,-1,4,-1,-1],"split_conditions":[2.1154916E0,-1.0464599E-2,8.463928E-1,7.0615835E-3,-6.757669E-4],"split_indices":[1616,0,762,0,0],"split_type":[0,0,0,0,0],"sum_hessian":[2.905804E1,1.049874E1,1.85593E1,1.4493685E1,4.0656147E0],"tree_param":{"num_deleted":"0","num_feature":"2048","num_nodes":"5","size_leaf_vector":"1"}},{"base_weights":[-1.296831E-2,-1.0754583E-2,9.0737766E-1,6.849713E-3,-4.209161E-3],"categories":[],"categories_nodes":[],"categories_segments":[],"categories_sizes":[],"default_left":[0,0,0,0,0],"id":13,"left_children":[1,-1,3,-1,-1],"loss_changes":[6.176401E1,0E0,1.891531E1,0E0,0E0],"parents":[2147483647,0,0,2,2],"right_children":[2,-1,4,-1,-1],"split_conditions":[7.2983754E-1,-1.0754583E-2,1.2929656E-1,6.849713E-3,-4.209161E-3],"split_indices":[598,0,702,0,0],"split_type":[0,0,0,0,0],"sum_hessian":[2.939149E1,8.445808E0,2.0945683E1,1.6741152E1,4.2045302E0],"tree_param":{"num_deleted":"0","num_feature":"2048","num_nodes":"5","size_leaf_vector":"1"}},{"base_weights":[4.5793127E-2,-1.148184E-2,1.0282375E0,-1.6043319E-3,7.0556947E-3],"categories":[],"categories_nodes":[],"categories_segments":[],"categories_sizes":[],"default_left":[0,0,0,0,0],"id":14,"left_children":[1,-1,3,-1,-1],"loss_changes":[7.056321E1,0E0,1.1610577E1,0E0,0E0],"parents":[2147483647,0,0,2,2],"right_children":[2,-1,4,-1,-1],"split_conditions":[7.103715E-1,-1.148184E-2,2.6911023E0,-1.6043319E-3,7.0556947E-3],"split_indices":[598,0,1616,0,0],"split_type":[0,0,0,0,0],"sum_hessian":[2.8645107E1,8.06661E0,2.0578497E1,4.579416E0,1.5999081E1],"tree_param":{"num_deleted":"0","num_feature":"2048","num_nodes":"5","size_leaf_vector":"1"}},{"base_weights":[4.4348985E-2,-1.4548007E0,7.052946E-3,-1.1035878E-2,2.4719595E-3],"categories":[],"categories_nodes":[],"categories_segments":[],"categories_sizes":[],"default_left":[0,0,0,0,0],"id":15,"left_children":[1,3,-1,-1,-1],"loss_changes":[6.804784E1,2.4356087E1,0E0,0E0,0E0],"parents":[2147483647,0,0,1,1],"right_children":[2,4,-1,-1,-1],"split_conditions":[3.176912E0,1.2357975E0,7.052946E-3,-1.1035878E-2,2.4719595E-3],"split_indices":[1616,802,0,0,0],"split_type":[0,0,0,0,0],"sum_hessian":[3.1221561E1,1.4852285E1,1.6369274E1,1.0624196E1,4.2280893E0],"tree_param":{"num_deleted":"0","num_feature":"2048","num_nodes":"5","size_leaf_vector":"1"}},{"base_weights":[-7.395057E-2,-1.628814E0,7.0074913E-3,-1.1712531E-2,1.3570313E-3],"categories":[],"categories_nodes":[],"categories_segments":[],"categories_sizes":[],"default_left":[0,0,0,0,0],"id":16,"left_children":[1,3,-1,-1,-1],"loss_changes":[7.2076996E1,2.1376354E1,0E0,0E0,0E0],"parents":[2147483647,0,0,1,1],"right_children":[2,4,-1,-1,-1],"split_conditions":[4.137695E0,1.2698449E-1,7.0074913E-3,-1.1712531E-2,1.3570313E-3],"split_indices":[1616,1912,0,0,0],"split_type":[0,0,0,0,0],"sum_hessian":[2.9422077E1,1.42782E1,1.5143877E1,1.0214359E1,4.0638413E0],"tree_param":{"num_deleted":"0","num_feature":"2048","num_nodes":"5","size_leaf_vector":"1"}},{"base_weights":[4.3040246E-2,-1.517961E0,7.0328102E-3,-1.0893243E-2,1.3539054E-3],"categories":[],"categories_nodes":[],"categories_segments":[],"categories_sizes":[],"default_left":[0,0,0,0,0],"id":17,"left_children":[1,3,-1,-1,-1],"loss_changes":[7.063159E1,1.8905495E1,0E0,0E0,0E0],"parents":[2147483647,0,0,1,1],"right_children":[2,4,-1,-1,-1],"split_conditions":[3.176912E0,1.9751938E-1,7.0328102E-3,-1.0893243E-2,1.3539054E-3],"split_indices":[1616,1508,0,0,0],"split_type":[0,0,0,0,0],"sum_hessian":[3.1181774E1,1.448188E1,1.6699896E1,1.0420566E1,4.0613146E0],"tree_param":{"num_deleted":"0","num_feature":"2048","num_nodes":"5","size_leaf_vector":"1"}},{"base_weights":[-1.5500936E-1,-1.6193763E0,6.6318796E-3,-1.1570013E-2,7.7553414E-4],"categories":[],"categories_nodes":[],"categories_segments":[],"categories_sizes":[],"default_left":[0,0,0,0,0],"id":18,"left_children":[1,3,-1,-1,-1],"loss_changes":[6.738699E1,1.9580532E1,0E0,0E0,0E0],"parents":[2147483647,0,0,1,1],"right_children":[2,4,-1,-1,-1],"split_conditions":[3.176912E0,6.723974E-2,6.6318796E-3,-1.1570013E-2,7.7553414E-4],"split_indices":[1616,1078,0,0,0],"split_type":[0,0,0,0,0],"sum_hessian":[2.9072563E1,1.4576813E1,1.4495751E1,1.0261508E1,4.3153043E0],"tree_param":{"num_deleted":"0","num_feature":"2048","num_nodes":"5","size_leaf_vector":"1"}},{"base_weights":[1.332392E-1,-1.5214154E0,6.9588306E-3,-3.5522424E-4,-1.1137725E-2],"categories":[],"categories_nodes":[],"categories_segments":[],"categories_sizes":[],"default_left":[0,0,0,0,0],"id":19,"left_children":[1,3,-1,-1,-1],"loss_changes":[6.0365887E1,1.2680592E1,0E0,0E0,0E0],"parents":[2147483647,0,0,1,1],"right_children":[2,4,-1,-1,-1],"split_conditions":[3.176912E0,1.7211945E0,6.9588306E-3,-3.5522424E-4,-1.1137725E-2],"split_indices":[1616,1570,0,0,0],"split_type":[0,0,0,0,0],"sum_hessian":[2.6972033E1,1.1558546E1,1.54134865E1,4.149782E0,7.4087634E0],"tree_param":{"num_deleted":"0","num_feature":"2048","num_nodes":"5","size_leaf_vector":"1"}},{"base_weights":[-9.095365E-2,-9.848377E-3,9.053493E-1,6.6867326E-3,-2.8397099E-3],"categories":[],"categories_nodes":[],"categories_segments":[],"categories_sizes":[],"default_left":[0,0,0,0,0],"id":20,"left_children":[1,-1,3,-1,-1],"loss_changes":[5.9114243E1,0E0,1.3937418E1,0E0,0E0],"parents":[2147483647,0,0,2,2],"right_children":[2,-1,4,-1,-1],"split_conditions":[7.103715E-1,-9.848377E-3,1.2508813E-1,6.6867326E-3,-2.8397099E-3],"split_indices":[598,0,702,0,0],"split_type":[0,0,0,0,0],"sum_hessian":[2.9623512E1,9.930566E0,1.9692945E1,1.5304449E1,4.388498E0],"tree_param":{"num_deleted":"0","num_feature":"2048","num_nodes":"5","size_leaf_vector":"1"}},{"base_weights":[1.0474799E-1,-1.4607944E0,6.6809794E-3,-1.1107E-2,7.9157087E-4],"categories":[],"categories_nodes":[],"categories_segments":[],"categories_sizes":[],"default_left":[0,0,0,0,0],"id":21,"left_children":[1,3,-1,-1,-1],"loss_changes":[6.0003967E1,1.7283232E1,0E0,0E0,0E0],"parents":[2147483647,0,0,1,1],"right_children":[2,4,-1,-1,-1],"split_conditions":[3.0663912E0,6.723974E-2,6.6809794E-3,-1.1107E-2,7.9157087E-4],"split_indices":[1616,1078,0,0,0],"split_type":[0,0,0,0,0],"sum_hessian":[2.9112446E1,1.2731941E1,1.6380507E1,8.41366E0,4.3182817E0],"tree_param":{"num_deleted":"0","num_feature":"2048","num_nodes":"5","size_leaf_vector":"1"}},{"base_weights":[6.742762E-2,-9.464536E-3,1.0638446E0,6.947527E-3,-8.110104E-4],"categories":[],"categories_nodes":[],"categories_segments":[],"categories_sizes":[],"default_left":[0,0,0,0,0],"id":22,"left_children":[1,-1,3,-1,-1],"loss_changes":[5.798307E1,0E0,8.080933E0,0E0,0E0],"parents":[2147483647,0,0,2,2],"right_children":[2,-1,4,-1,-1],"split_conditions":[2.2682211E0,-9.464536E-3,1.3565084E-1,6.947527E-3,-8.110104E-4],"split_indices":[1616,0,563,0,0],"split_type":[0,0,0,0,0],"sum_hessian":[2.76578E1,9.014017E0,1.8643784E1,1.4632068E1,4.011716E0],"tree_param":{"num_deleted":"0","num_feature":"2048","num_nodes":"5","size_leaf_vector":"1"}},{"base_weights":[8.1231765E-2,-1.5434142E0,6.6479454E-3,-1.1028607E-2,-3.1342174E-4],"categories":[],"categories_nodes":[],"categories_segments":[],"categories_sizes":[],"default_left":[0,0,0,0,0],"id":23,"left_children":[1,3,-1,-1,-1],"loss_changes":[6.2172554E1,1.2921671E1,0E0,0E0,0E0],"parents":[2147483647,0,0,1,1],"right_children":[2,4,-1,-1,-1],"split_conditions":[3.176912E0,1.2523609E0,6.6479454E-3,-1.1028607E-2,-3.1342174E-4],"split_indices":[1616,138,0,0,0],"split_type":[0,0,0,0,0],"sum_hessian":[2.8644218E1,1.2340105E1,1.6304113E1,8.183418E0,4.1566863E0],"tree_param":{"num_deleted":"0","num_feature":"2048","num_nodes":"5","size_leaf_vector":"1"}},{"base_weights":[1.3107969E-1,-9.542733E-3,1.0467172E0,-1.2554456E-3,6.765151E-3],"categories":[],"categories_nodes":[],"categories_segments":[],"categories_sizes":[],"default_left":[0,0,0,0,0],"id":24,"left_children":[1,-1,3,-1,-1],"loss_changes":[6.317857E1,0E0,9.598261E0,0E0,0E0],"parents":[2147483647,0,0,2,2],"right_children":[2,-1,4,-1,-1],"split_conditions":[7.103715E-1,-9.542733E-3,1.4203894E-2,-1.2554456E-3,6.765151E-3],"split_indices":[598,0,614,0,0],"split_type":[0,0,0,0,0],"sum_hessian":[3.176443E1,9.502296E0,2.2262133E1,4.2792363E0,1.7982897E1],"tree_param":{"num_deleted":"0","num_feature":"2048","num_nodes":"5","size_leaf_vector":"1"}},{"base_weights":[2.677409E-2,-9.0603465E-3,8.982353E-1,6.253635E-3,-1.3435473E-3],"categories":[],"categories_nodes":[],"categories_segments":[],"categories_sizes":[],"default_left":[0,0,0,0,0],"id":25,"left_children":[1,-1,3,-1,-1],"loss_changes":[4.516769E1,0E0,8.20669E0,0E0,0E0],"parents":[2147483647,0,0,2,2],"right_children":[2,-1,4,-1,-1],"split_conditions":[7.103715E-1,-9.0603465E-3,1.5346025E0,6.253635E-3,-1.3435473E-3],"split_indices":[598,0,1038,0,0],"split_type":[0,0,0,0,0],"sum_hessian":[2.6176092E1,8.0658245E0,1.8110268E1,1.3860335E1,4.249932E0],"tree_param":{"num_deleted":"0","num_feature":"2048","num_nodes":"5","size_leaf_vector":"1"}},{"base_weights":[6.80527E-2,-8.946696E-3,8.3984256E-1,6.1195903E-3,-2.22281E-3],"categories":[],"categories_nodes":[],"categories_segments":[],"categories_sizes":[],"default_left":[0,0,0,0,0],"id":26,"left_children":[1,-1,3,-1,-1],"loss_changes":[4.4376102E1,0E0,1.1314655E1,0E0,0E0],"parents":[2147483647,0,0,2,2],"right_children":[2,-1,4,-1,-1],"split_conditions":[5.879104E-1,-8.946696E-3,1.56823E0,6.1195903E-3,-2.22281E-3],"split_indices":[598,0,1038,0,0],"split_type":[0,0,0,0,0],"sum_hessian":[2.8914436E1,8.096937E0,2.08175E1,1.6067665E1,4.7498355E0],"tree_param":{"num_deleted":"0","num_feature":"2048","num_nodes":"5","size_leaf_vector":"1"}},{"base_weights":[-1.4137912E-2,-1.0582163E-2,8.349003E-1,6.125055E-3,-2.942353E-3],"categories":[],"categories_nodes":[],"categories_segments":[],"categories_sizes":[],"default_left":[0,0,0,0,0],"id":27,"left_children":[1,-1,3,-1,-1],"loss_changes":[5.4523045E1,0E0,1.2811205E1,0E0,0E0],"parents":[2147483647,0,0,2,2],"right_children":[2,-1,4,-1,-1],"split_conditions":[7.103715E-1,-1.0582163E-2,9.749026E-1,6.125055E-3,-2.942353E-3],"split_indices":[598,0,50,0,0],"split_type":[0,0,0,0,0],"sum_hessian":[2.8549202E1,7.786979E0,2.0762222E1,1.641081E1,4.3514113E0],"tree_param":{"num_deleted":"0","num_feature":"2048","num_nodes":"5","size_leaf_vector":"1"}},{"base_weights":[9.036216E-2,-1.3067371E0,6.8119923E-3,-1.00213755E-2,1.3915017E-3],"categories":[],"categories_nodes":[],"categories_segments":[],"categories_sizes":[],"default_left":[0,0,0,0,0],"id":28,"left_children":[1,3,-1,-1,-1],"loss_changes":[5.0984257E1,1.5723547E1,0E0,0E0,0E0],"parents":[2147483647,0,0,1,1],"right_children":[2,4,-1,-1,-1],"split_conditions":[4.137695E0,3.7086475E-1,6.8119923E-3,-1.00213755E-2,1.3915017E-3],"split_indices":[1616,1809,0,0,0],"split_type":[0,0,0,0,0],"sum_hessian":[2.6686522E1,1.2701313E1,1.3985209E1,8.640598E0,4.0607142E0],"tree_param":{"num_deleted":"0","num_feature":"2048","num_nodes":"5","size_leaf_vector":"1"}},{"base_weights":[1.1614278E-1,-9.309474E-3,1.0943907E0,6.9262683E-3,-7.6919404E-4],"categories":[],"categories_nodes":[],"categories_segments":[],"categories_sizes":[],"default_left":[0,0,0,0,0],"id":29,"left_children":[1,-1,3,-1,-1],"loss_changes":[6.3243004E1,0E0,8.140091E0,0E0,0E0],"parents":[2147483647,0,0,2,2],"right_children":[2,-1,4,-1,-1],"split_conditions":[2.1154916E0,-9.309474E-3,4.3153444E-1,6.9262683E-3,-7.6919404E-4],"split_indices":[1616,0,823,0,0],"split_type":[0,0,0,0,0],"sum_hessian":[3.0634462E1,9.834791E0,2.0799671E1,1.6786346E1,4.0133247E0],"tree_param":{"num_deleted":"0","num_feature":"2048","num_nodes":"5","size_leaf_vector":"1"}},{"base_weights":[8.0058485E-2,-9.218486E-3,1.0376874E0,6.887441E-3,-1.2640974E-3],"categories":[],"categories_nodes":[],"categories_segments":[],"categories_sizes":[],"default_left":[0,0,0,0,0],"id":30,"left_children":[1,-1,3,-1,-1],"loss_changes":[5.8680603E1,0E0,9.6645355E0,0E0,0E0],"parents":[2147483647,0,0,2,2],"right_children":[2,-1,4,-1,-1],"split_conditions":[2.0604014E0,-9.218486E-3,4.4059232E-1,6.887441E-3,-1.2640974E-3],"split_indices":[1616,0,823,0,0],"split_type":[0,0,0,0,0],"sum_hessian":[2.9818655E1,9.599253E0,2.0219404E1,1.5957907E1,4.261497E0],"tree_param":{"num_deleted":"0","num_feature":"2048","num_nodes":"5","size_leaf_vector":"1"}},{"base_weights":[2.494044E-2,-9.8070325E-3,9.511107E-1,6.888418E-3,-2.2223394E-3],"categories":[],"categories_nodes":[],"categories_segments":[],"categories_sizes":[],"default_left":[0,0,0,0,0],"id":31,"left_children":[1,-1,3,-1,-1],"loss_changes":[5.7545593E1,0E0,1.3315046E1,0E0,0E0],"parents":[2147483647,0,0,2,2],"right_children":[2,-1,4,-1,-1],"split_conditions":[7.103715E-1,-9.8070325E-3,1.56823E0,6.888418E-3,-2.2223394E-3],"split_indices":[598,0,1038,0,0],"split_type":[0,0,0,0,0],"sum_hessian":[2.9271416E1,8.94933E0,2.0322084E1,1.5579912E1,4.7421722E0],"tree_param":{"num_deleted":"0","num_feature":"2048","num_nodes":"5","size_leaf_vector":"1"}},{"base_weights":[-1.8005984E-1,-1.4207169E0,6.6858106E-3,-1.0244507E-2,1.4594735E-3],"categories":[],"categories_nodes":[],"categories_segments":[],"categories_sizes":[],"default_left":[0,0,0,0,0],"id":32,"left_children":[1,3,-1,-1,-1],"loss_changes":[5.389597E1,1.7489899E1,0E0,0E0,0E0],"parents":[2147483647,0,0,1,1],"right_children":[2,4,-1,-1,-1],"split_conditions":[4.137695E0,4.0209725E-2,6.6858106E-3,-1.0244507E-2,1.4594735E-3],"split_indices":[1616,1078,0,0,0],"split_type":[0,0,0,0,0],"sum_hessian":[2.6622572E1,1.4684784E1,1.1937789E1,1.0604527E1,4.080256E0],"tree_param":{"num_deleted":"0","num_feature":"2048","num_nodes":"5","size_leaf_vector":"1"}},{"base_weights":[5.4097823E-3,-1.73378E0,1.012401E0,-1.0248955E-2,-4.678668E-3,6.822346E-3,-1.2553728E-3],"categories":[],"categories_nodes":[],"categories_segments":[],"categories_sizes":[],"default_left":[0,0,0,0,0,0,0],"id":33,"left_children":[1,3,5,-1,-1,-1,-1],"loss_changes":[5.624639E1,1.0217857E0,9.402592E0,0E0,0E0,0E0,0E0],"parents":[2147483647,0,0,1,1,2,2],"right_children":[2,4,6,-1,-1,-1,-1],"split_conditions":[2.1154916E0,7.7357804E-3,9.7381216E-1,-1.0248955E-2,-4.678668E-3,6.822346E-3,-1.2553728E-3],"split_indices":[1616,911,762,0,0,0,0],"split_type":[0,0,0,0,0,0,0],"sum_hessian":[3.0117918E1,1.07755785E1,1.9342339E1,6.586435E0,4.1891437E0,1.5070826E1,4.271513E0],"tree_param":{"num_deleted":"0","num_feature":"2048","num_nodes":"7","size_leaf_vector":"1"}},{"base_weights":[2.2965925E-2,-9.080623E-3,1.0032561E0,6.8206745E-3,-1.3473917E-3],"categories":[],"categories_nodes":[],"categories_segments":[],"categories_sizes":[],"default_left":[0,0,0,0,0],"id":34,"left_children":[1,-1,3,-1,-1],"loss_changes":[5.511331E1,0E0,9.533583E0,0E0,0E0],"parents":[2147483647,0,0,2,2],"right_children":[2,-1,4,-1,-1],"split_conditions":[2.1154916E0,-9.080623E-3,1.3585591E-1,6.8206745E-3,-1.3473917E-3],"split_indices":[1616,0,563,0,0],"split_type":[0,0,0,0,0],"sum_hessian":[2.8564095E1,9.631641E0,1.8932453E1,1.4700287E1,4.2321653E0],"tree_param":{"num_deleted":"0","num_feature":"2048","num_nodes":"5","size_leaf_vector":"1"}},{"base_weights":[1.6267523E-1,-9.560901E-3,1.0525122E0,6.837817E-3,-6.4122817E-4],"categories":[],"categories_nodes":[],"categories_segments":[],"categories_sizes":[],"default_left":[0,0,0,0,0],"id":35,"left_children":[1,-1,3,-1,-1],"loss_changes":[5.9845436E1,0E0,8.585222E0,0E0,0E0],"parents":[2147483647,0,0,2,2],"right_children":[2,-1,4,-1,-1],"split_conditions":[2.1154916E0,-9.560901E-3,9.7381216E-1,6.837817E-3,-6.4122817E-4],"split_indices":[1616,0,762,0,0],"split_type":[0,0,0,0,0],"sum_hessian":[3.0328588E1,8.754755E0,2.1573833E1,1.6911695E1,4.662137E0],"tree_param":{"num_deleted":"0","num_feature":"2048","num_nodes":"5","size_leaf_vector":"1"}},{"base_weights":[4.9051024E-2,-1.2480251E0,6.7325155E-3,-9.872594E-3,2.5443113E-3],"categories":[],"categories_nodes":[],"categories_segments":[],"categories_sizes":[],"default_left":[0,0,0,0,0],"id":36,"left_children":[1,3,-1,-1,-1],"loss_changes":[5.105117E1,2.0401505E1,0E0,0E0,0E0],"parents":[2147483647,0,0,1,1],"right_children":[2,4,-1,-1,-1],"split_conditions":[3.176912E0,1.6395179E0,6.7325155E-3,-9.872594E-3,2.5443113E-3],"split_indices":[1616,138,0,0,0],"split_type":[0,0,0,0,0],"sum_hessian":[2.8336199E1,1.4185349E1,1.415085E1,9.951927E0,4.233422E0],"tree_param":{"num_deleted":"0","num_feature":"2048","num_nodes":"5","size_leaf_vector":"1"}},{"base_weights":[7.518518E-2,-1.1856316E0,1.1538444E0,-1.0472204E-2,3.4924697E-3,6.7251557E-3,2.0725394E-3],"categories":[],"categories_nodes":[],"categories_segments":[],"categories_sizes":[],"default_left":[0,0,0,0,0,0,0],"id":37,"left_children":[1,3,5,-1,-1,-1,-1],"loss_changes":[4.388199E1,2.6994202E1,1.8785172E0,0E0,0E0,0E0,0E0],"parents":[2147483647,0,0,1,1,2,2],"right_children":[2,4,6,-1,-1,-1,-1],"split_conditions":[2.0512863E-1,3.9729828E-1,1.4920872E0,-1.0472204E-2,3.4924697E-3,6.7251557E-3,2.0725394E-3],"split_indices":[1906,1809,396,0,0,0,0],"split_type":[0,0,0,0,0,0,0],"sum_hessian":[3.0260685E1,1.3902256E1,1.6358429E1,9.306799E0,4.595457E0,1.2335735E1,4.0226936E0],"tree_param":{"num_deleted":"0","num_feature":"2048","num_nodes":"7","size_leaf_vector":"1"}},{"base_weights":[1.5257369E-1,-1.3961463E0,6.470511E-3,-1.9469795E-4,-1.0236914E-2],"categories":[],"categories_nodes":[],"categories_segments":[],"categories_sizes":[],"default_left":[0,0,0,0,0],"id":38,"left_children":[1,3,-1,-1,-1],"loss_changes":[5.29732E1,1.117588E1,0E0,0E0,0E0],"parents":[2147483647,0,0,1,1],"right_children":[2,4,-1,-1,-1],"split_conditions":[3.176912E0,1.4475161E-1,6.470511E-3,-1.9469795E-4,-1.0236914E-2],"split_indices":[1616,1473,0,0,0],"split_type":[0,0,0,0,0],"sum_hessian":[2.7942375E1,1.1758171E1,1.6184204E1,4.161196E0,7.596975E0],"tree_param":{"num_deleted":"0","num_feature":"2048","num_nodes":"5","size_leaf_vector":"1"}},{"base_weights":[7.294976E-2,-9.197075E-3,9.3896246E-1,-1.0682325E-3,6.736832E-3],"categories":[],"categories_nodes":[],"categories_segments":[],"categories_sizes":[],"default_left":[0,0,0,0,0],"id":39,"left_children":[1,-1,3,-1,-1],"loss_changes":[4.6623276E1,0E0,9.397753E0,0E0,0E0],"parents":[2147483647,0,0,2,2],"right_children":[2,-1,4,-1,-1],"split_conditions":[7.103715E-1,-9.197075E-3,1.604218E-1,-1.0682325E-3,6.736832E-3],"split_indices":[598,0,1906,0,0],"split_type":[0,0,0,0,0],"sum_hessian":[2.6114466E1,7.785859E0,1.8328606E1,4.9136252E0,1.341498E1],"tree_param":{"num_deleted":"0","num_feature":"2048","num_nodes":"5","size_leaf_vector":"1"}},{"base_weights":[4.1482538E-2,-1.2821425E0,1.1341089E0,-1.0285167E-2,2.1813533E-3,6.673077E-3,2.0165255E-3],"categories":[],"categories_nodes":[],"categories_segments":[],"categories_sizes":[],"default_left":[0,0,0,0,0,0,0],"id":40,"left_children":[1,3,5,-1,-1,-1,-1],"loss_changes":[4.3652187E1,1.9103024E1,1.8649235E0,0E0,0E0,0E0,0E0],"parents":[2147483647,0,0,1,1,2,2],"right_children":[2,4,6,-1,-1,-1,-1],"split_conditions":[2.0512863E-1,4.375192E-2,1.4131472E-1,-1.0285167E-2,2.1813533E-3,6.673077E-3,2.0165255E-3],"split_indices":[1906,1527,567,0,0,0,0],"split_type":[0,0,0,0,0,0,0],"sum_hessian":[2.8179073E1,1.2659975E1,1.5519099E1,8.593595E0,4.06638E0,1.1518827E1,4.0002713E0],"tree_param":{"num_deleted":"0","num_feature":"2048","num_nodes":"7","size_leaf_vector":"1"}},{"base_weights":[4.2511106E-2,-1.284908E0,6.7171883E-3,-9.757396E-3,2.474803E-3],"categories":[],"categories_nodes":[],"categories_segments":[],"categories_sizes":[],"default_left":[0,0,0,0,0],"id":41,"left_children":[1,3,-1,-1,-1],"loss_changes":[5.6513496E1,2.0212643E1,0E0,0E0,0E0],"parents":[2147483647,0,0,1,1],"right_children":[2,4,-1,-1,-1],"split_conditions":[3.176912E0,1.2084528E0,6.7171883E-3,-9.757396E-3,2.474803E-3],"split_indices":[1616,802,0,0,0],"split_type":[0,0,0,0,0],"sum_hessian":[3.0725935E1,1.5210405E1,1.551553E1,1.1000031E1,4.210374E0],"tree_param":{"num_deleted":"0","num_feature":"2048","num_nodes":"5","size_leaf_vector":"1"}},{"base_weights":[-2.1219725E-2,-1.5882765E0,6.69897E-3,-1.0315062E-2,-1.3206577E-3],"categories":[],"categories_nodes":[],"categories_segments":[],"categories_sizes":[],"default_left":[0,0,0,0,0],"id":42,"left_children":[1,3,-1,-1,-1],"loss_changes":[6.699648E1,8.608265E0,0E0,0E0,0E0],"parents":[2147483647,0,0,1,1],"right_children":[2,4,-1,-1,-1],"split_conditions":[3.176912E0,9.172982E-2,6.69897E-3,-1.0315062E-2,-1.3206577E-3],"split_indices":[1616,833,0,0,0],"split_type":[0,0,0,0,0],"sum_hessian":[2.9413757E1,1.3597782E1,1.5815974E1,9.592946E0,4.004836E0],"tree_param":{"num_deleted":"0","num_feature":"2048","num_nodes":"5","size_leaf_vector":"1"}},{"base_weights":[3.079033E-1,-1.2803789E0,6.426186E-3,-9.492152E-3,-1.1739302E-3],"categories":[],"categories_nodes":[],"categories_segments":[],"categories_sizes":[],"default_left":[0,0,0,0,0],"id":43,"left_children":[1,3,-1,-1,-1],"loss_changes":[4.2243965E1,6.2925262E0,0E0,0E0,0E0],"parents":[2147483647,0,0,1,1],"right_children":[2,4,-1,-1,-1],"split_conditions":[2.7799904E0,4.4563547E-2,6.426186E-3,-9.492152E-3,-1.1739302E-3],"split_indices":[1616,418,0,0,0],"split_type":[0,0,0,0,0],"sum_hessian":[2.5153963E1,9.460018E0,1.5693944E1,5.4269342E0,4.0330844E0],"tree_param":{"num_deleted":"0","num_feature":"2048","num_nodes":"5","size_leaf_vector":"1"}},{"base_weights":[1.8280018E-2,-1.3222897E0,6.383298E-3,-1.0237066E-2,2.5218904E-3],"categories":[],"categories_nodes":[],"categories_segments":[],"categories_sizes":[],"default_left":[0,0,0,0,0],"id":44,"left_children":[1,3,-1,-1,-1],"loss_changes":[5.431844E1,2.1702604E1,0E0,0E0,0E0],"parents":[2147483647,0,0,1,1],"right_children":[2,4,-1,-1,-1],"split_conditions":[3.176912E0,1.3180262E0,6.383298E-3,-1.0237066E-2,2.5218904E-3],"split_indices":[1616,598,0,0,0],"split_type":[0,0,0,0,0],"sum_hessian":[3.0198862E1,1.4593483E1,1.560538E1,1.0363974E1,4.2295094E0],"tree_param":{"num_deleted":"0","num_feature":"2048","num_nodes":"5","size_leaf_vector":"1"}},{"base_weights":[4.9889743E-2,-1.386736E0,6.4142565E-3,-1.0185157E-2,9.812791E-4],"categories":[],"categories_nodes":[],"categories_segments":[],"categories_sizes":[],"default_left":[0,0,0,0,0],"id":45,"left_children":[1,3,-1,-1,-1],"loss_changes":[5.826965E1,1.6072046E1,0E0,0E0,0E0],"parents":[2147483647,0,0,1,1],"right_children":[2,4,-1,-1,-1],"split_conditions":[3.0663912E0,1.6395179E0,6.4142565E-3,-1.0185157E-2,9.812791E-4],"split_indices":[1616,138,0,0,0],"split_type":[0,0,0,0,0],"sum_hessian":[3.089272E1,1.42066E1,1.668612E1,9.871052E0,4.3355494E0],"tree_param":{"num_deleted":"0","num_feature":"2048","num_nodes":"5","size_leaf_vector":"1"}},{"base_weights":[9.519702E-2,-8.561644E-3,9.7602594E-1,-7.0379884E-4,6.65194E-3],"categories":[],"categories_nodes":[],"categories_segments":[],"categories_sizes":[],"default_left":[0,0,0,0,0],"id":46,"left_children":[1,-1,3,-1,-1],"loss_changes":[5.0722836E1,0E0,8.651625E0,0E0,0E0],"parents":[2147483647,0,0,2,2],"right_children":[2,-1,4,-1,-1],"split_conditions":[6.53185E-1,-8.561644E-3,2.6911023E0,-7.0379884E-4,6.65194E-3],"split_indices":[598,0,1616,0,0],"split_type":[0,0,0,0,0],"sum_hessian":[2.9813566E1,9.455282E0,2.0358284E1,5.0421886E0,1.5316095E1],"tree_param":{"num_deleted":"0","num_feature":"2048","num_nodes":"5","size_leaf_vector":"1"}},{"base_weights":[-5.952385E-2,-9.1363285E-3,8.1285334E-1,-2.9536511E-3,6.1227083E-3],"categories":[],"categories_nodes":[],"categories_segments":[],"categories_sizes":[],"default_left":[0,0,0,0,0],"id":47,"left_children":[1,-1,3,-1,-1],"loss_changes":[4.7035152E1,0E0,1.2552798E1,0E0,0E0],"parents":[2147483647,0,0,2,2],"right_children":[2,-1,4,-1,-1],"split_conditions":[7.103715E-1,-9.1363285E-3,1.3938826E-2,-2.9536511E-3,6.1227083E-3],"split_indices":[598,0,614,0,0],"split_type":[0,0,0,0,0],"sum_hessian":[2.8530249E1,9.069383E0,1.9460867E1,4.30942E0,1.5151446E1],"tree_param":{"num_deleted":"0","num_feature":"2048","num_nodes":"5","size_leaf_vector":"1"}},{"base_weights":[-1.1238448E-1,-1.3983114E0,6.241542E-3,5.112727E-4,-1.0140715E-2],"categories":[],"categories_nodes":[],"categories_segments":[],"categories_sizes":[],"default_left":[0,0,0,0,0],"id":48,"left_children":[1,3,-1,-1,-1],"loss_changes":[5.3626694E1,1.5082838E1,0E0,0E0,0E0],"parents":[2147483647,0,0,1,1],"right_children":[2,4,-1,-1,-1],"split_conditions":[3.176912E0,1.0365286E-1,6.241542E-3,5.112727E-4,-1.0140715E-2],"split_indices":[1616,1312,0,0,0],"split_type":[0,0,0,0,0],"sum_hessian":[2.8649736E1,1.4719106E1,1.3930632E1,4.5945125E0,1.0124593E1],"tree_param":{"num_deleted":"0","num_feature":"2048","num_nodes":"5","size_leaf_vector":"1"}},{"base_weights":[1.5615621E-2,-1.5755838E0,6.6050612E-3,-2.752463E-3,-9.879991E-3],"categories":[],"categories_nodes":[],"categories_segments":[],"categories_sizes":[],"default_left":[0,0,0,0,0],"id":49,"left_children":[1,3,-1,-1,-1],"loss_changes":[6.119834E1,4.3376465E0,0E0,0E0,0E0],"parents":[2147483647,0,0,1,1],"right_children":[2,4,-1,-1,-1],"split_conditions":[3.0016966E0,9.740327E-2,6.6050612E-3,-2.752463E-3,-9.879991E-3],"split_indices":[1616,519,0,0,0],"split_type":[0,0,0,0,0],"sum_hessian":[2.7461893E1,1.2279405E1,1.51824875E1,4.12328E0,8.156125E0],"tree_param":{"num_deleted":"0","num_feature":"2048","num_nodes":"5","size_leaf_vector":"1"}},{"base_weights":[1.4398858E-1,-1.314494E0,1.1774392E0,-9.748552E-3,-0E0,6.5582427E-3,2.8293063E-3],"categories":[],"categories_nodes":[],"categories_segments":[],"categories_sizes":[],"default_left":[0,0,0,0,0,0,0],"id":50,"left_children":[1,3,5,-1,-1,-1,-1],"loss_changes":[4.657738E1,1.0743141E1,7.17865E-1,0E0,0E0,0E0,0E0],"parents":[2147483647,0,0,1,1,2,2],"right_children":[2,4,6,-1,-1,-1,-1],"split_conditions":[2.6911023E0,6.0156103E-2,2.1875897E-1,-9.748552E-3,-0E0,6.5582427E-3,2.8293063E-3],"split_indices":[1616,2043,1020,0,0,0,0],"split_type":[0,0,0,0,0,0,0],"sum_hessian":[2.887588E1,1.1858565E1,1.7017315E1,7.670921E0,4.1876445E0,1.3002829E1,4.0144863E0],"tree_param":{"num_deleted":"0","num_feature":"2048","num_nodes":"7","size_leaf_vector":"1"}},{"base_weights":[1.3030995E-1,-1.3120431E0,6.366373E-3,1.6617749E-3,-9.958414E-3],"categories":[],"categories_nodes":[],"categories_segments":[],"categories_sizes":[],"default_left":[0,0,0,0,0],"id":51,"left_children":[1,3,-1,-1,-1],"loss_changes":[5.389039E1,1.6875511E1,0E0,0E0,0E0],"parents":[2147483647,0,0,1,1],"right_children":[2,4,-1,-1,-1],"split_conditions":[3.176912E0,1.7211945E0,6.366373E-3,1.6617749E-3,-9.958414E-3],"split_indices":[1616,1570,0,0,0],"split_type":[0,0,0,0,0],"sum_hessian":[3.0676264E1,1.3492659E1,1.7183605E1,4.0909114E0,9.401747E0],"tree_param":{"num_deleted":"0","num_feature":"2048","num_nodes":"5","size_leaf_vector":"1"}},{"base_weights":[-9.043169E-2,-1.3286163E0,6.1664116E-3,-9.82603E-3,9.6920226E-4],"categories":[],"categories_nodes":[],"categories_segments":[],"categories_sizes":[],"default_left":[0,0,0,0,0],"id":52,"left_children":[1,3,-1,-1,-1],"loss_changes":[4.7700974E1,1.4942259E1,0E0,0E0,0E0],"parents":[2147483647,0,0,1,1],"right_children":[2,4,-1,-1,-1],"split_conditions":[3.0663912E0,1.09747656E-1,6.1664116E-3,-9.82603E-3,9.6920226E-4],"split_indices":[1616,1912,0,0,0],"split_type":[0,0,0,0,0],"sum_hessian":[2.7103355E1,1.4006093E1,1.3097263E1,9.675995E0,4.3300986E0],"tree_param":{"num_deleted":"0","num_feature":"2048","num_nodes":"5","size_leaf_vector":"1"}},{"base_weights":[-4.4296365E-2,-1.2496393E0,6.2540895E-3,-9.358719E-3,2.5579743E-3],"categories":[],"categories_nodes":[],"categories_segments":[],"categories_sizes":[],"default_left":[0,0,0,0,0],"id":53,"left_children":[1,3,-1,-1,-1],"loss_changes":[5.1474163E1,1.9668266E1,0E0,0E0,0E0],"parents":[2147483647,0,0,1,1],"right_children":[2,4,-1,-1,-1],"split_conditions":[3.176912E0,1.3180262E0,6.2540895E-3,-9.358719E-3,2.5579743E-3],"split_indices":[1616,598,0,0,0],"split_type":[0,0,0,0,0],"sum_hessian":[3.0972641E1,1.6064497E1,1.4908145E1,1.1829132E1,4.235364E0],"tree_param":{"num_deleted":"0","num_feature":"2048","num_nodes":"5","size_leaf_vector":"1"}},{"base_weights":[-5.2009672E-2,-1.2754205E0,6.194167E-3,-9.823005E-3,1.4459878E-3],"categories":[],"categories_nodes":[],"categories_segments":[],"categories_sizes":[],"default_left":[0,0,0,0,0],"id":54,"left_children":[1,3,-1,-1,-1],"loss_changes":[4.899436E1,1.774185E1,0E0,0E0,0E0],"parents":[2147483647,0,0,1,1],"right_children":[2,4,-1,-1,-1],"split_conditions":[3.176912E0,1.6395179E0,6.194167E-3,-9.823005E-3,1.4459878E-3],"split_indices":[1616,138,0,0,0],"split_type":[0,0,0,0,0],"sum_hessian":[2.9023445E1,1.4911038E1,1.4112407E1,1.0178415E1,4.7326226E0],"tree_param":{"num_deleted":"0","num_feature":"2048","num_nodes":"5","size_leaf_vector":"1"}},{"base_weights":[1.9200544E-1,-8.06493E-3,9.78945E-1,6.4482563E-3,-1.4838238E-3],"categories":[],"categories_nodes":[],"categories_segments":[],"categories_sizes":[],"default_left":[0,0,0,0,0],"id":55,"left_children":[1,-1,3,-1,-1],"loss_changes":[4.539296E1,0E0,9.1563835E0,0E0,0E0],"parents":[2147483647,0,0,2,2],"right_children":[2,-1,4,-1,-1],"split_conditions":[6.53185E-1,-8.06493E-3,5.9934723E-1,6.4482563E-3,-1.4838238E-3],"split_indices":[598,0,436,0,0],"split_type":[0,0,0,0,0],"sum_hessian":[2.9850239E1,8.740313E0,2.1109926E1,1.6972975E1,4.136953E0],"tree_param":{"num_deleted":"0","num_feature":"2048","num_nodes":"5","size_leaf_vector":"1"}},{"base_weights":[3.8864337E-2,-1.2814858E0,6.2315427E-3,-9.613036E-3,1.5838669E-3],"categories":[],"categories_nodes":[],"categories_segments":[],"categories_sizes":[],"default_left":[0,0,0,0,0],"id":56,"left_children":[1,3,-1,-1,-1],"loss_changes":[4.9340973E1,1.5784332E1,0E0,0E0,0E0],"parents":[2147483647,0,0,1,1],"right_children":[2,4,-1,-1,-1],"split_conditions":[3.176912E0,5.4147255E-1,6.2315427E-3,-9.613036E-3,1.5838669E-3],"split_indices":[1616,1354,0,0,0],"split_type":[0,0,0,0,0],"sum_hessian":[2.8947763E1,1.37941475E1,1.5153616E1,9.704591E0,4.089556E0],"tree_param":{"num_deleted":"0","num_feature":"2048","num_nodes":"5","size_leaf_vector":"1"}},{"base_weights":[2.489381E-1,-7.5255553E-3,9.025055E-1,6.176827E-3,-2.4623866E-3],"categories":[],"categories_nodes":[],"categories_segments":[],"categories_sizes":[],"default_left":[0,0,0,0,0],"id":57,"left_children":[1,-1,3,-1,-1],"loss_changes":[3.5769016E1,0E0,1.1063992E1,0E0,0E0],"parents":[2147483647,0,0,2,2],"right_children":[2,-1,4,-1,-1],"split_conditions":[6.53185E-1,-7.5255553E-3,1.7202108E0,6.176827E-3,-2.4623866E-3],"split_indices":[598,0,1038,0,0],"split_type":[0,0,0,0,0],"sum_hessian":[2.9021795E1,7.5203648E0,2.1501429E1,1.7457458E1,4.0439715E0],"tree_param":{"num_deleted":"0","num_feature":"2048","num_nodes":"5","size_leaf_vector":"1"}},{"base_weights":[-1.641721E-1,-1.4375019E0,6.434041E-3,-9.715387E-3,-4.938714E-5],"categories":[],"categories_nodes":[],"categories_segments":[],"categories_sizes":[],"default_left":[0,0,0,0,0],"id":58,"left_children":[1,3,-1,-1,-1],"loss_changes":[5.5176678E1,1.1400085E1,0E0,0E0,0E0],"parents":[2147483647,0,0,1,1],"right_children":[2,4,-1,-1,-1],"split_conditions":[3.176912E0,1.1482636E-1,6.434041E-3,-9.715387E-3,-4.938714E-5],"split_indices":[1616,183,0,0,0],"split_type":[0,0,0,0,0],"sum_hessian":[2.7862339E1,1.4848229E1,1.3014109E1,1.0693277E1,4.154953E0],"tree_param":{"num_deleted":"0","num_feature":"2048","num_nodes":"5","size_leaf_vector":"1"}},{"base_weights":[-8.641796E-2,-1.2510403E0,6.106353E-3,-9.101064E-3,1.5927933E-3],"categories":[],"categories_nodes":[],"categories_segments":[],"categories_sizes":[],"default_left":[0,0,0,0,0],"id":59,"left_children":[1,3,-1,-1,-1],"loss_changes":[4.5953453E1,1.48237705E1,0E0,0E0,0E0],"parents":[2147483647,0,0,1,1],"right_children":[2,4,-1,-1,-1],"split_conditions":[3.176912E0,6.1526066E-1,6.106353E-3,-9.101064E-3,1.5927933E-3],"split_indices":[1616,316,0,0,0],"split_type":[0,0,0,0,0],"sum_hessian":[2.8170301E1,1.492718E1,1.3243122E1,1.0842239E1,4.084941E0],"tree_param":{"num_deleted":"0","num_feature":"2048","num_nodes":"5","size_leaf_vector":"1"}},{"base_weights":[6.0134597E-2,-8.165621E-3,1.0081747E0,6.531958E-3,-4.4505045E-4],"categories":[],"categories_nodes":[],"categories_segments":[],"categories_sizes":[],"default_left":[0,0,0,0,0],"id":60,"left_children":[1,-1,3,-1,-1],"loss_changes":[5.0491955E1,0E0,6.7153397E0,0E0,0E0],"parents":[2147483647,0,0,2,2],"right_children":[2,-1,4,-1,-1],"split_conditions":[2.1154916E0,-8.165621E-3,5.719698E0,6.531958E-3,-4.4505045E-4],"split_indices":[1616,0,812,0,0],"split_type":[0,0,0,0,0],"sum_hessian":[2.9431957E1,1.03008375E1,1.9131119E1,1.4899771E1,4.2313476E0],"tree_param":{"num_deleted":"0","num_feature":"2048","num_nodes":"5","size_leaf_vector":"1"}},{"base_weights":[3.7273128E-2,-1.1767277E0,6.1345035E-3,-8.895229E-3,1.679984E-3],"categories":[],"categories_nodes":[],"categories_segments":[],"categories_sizes":[],"default_left":[0,0,0,0,0],"id":61,"left_children":[1,3,-1,-1,-1],"loss_changes":[4.3597908E1,1.423587E1,0E0,0E0,0E0],"parents":[2147483647,0,0,1,1],"right_children":[2,4,-1,-1,-1],"split_conditions":[3.176912E0,6.723974E-2,6.1345035E-3,-8.895229E-3,1.679984E-3],"split_indices":[1616,1078,0,0,0],"split_type":[0,0,0,0,0],"sum_hessian":[2.8188078E1,1.395233E1,1.4235749E1,9.8578205E0,4.094509E0],"tree_param":{"num_deleted":"0","num_feature":"2048","num_nodes":"5","size_leaf_vector":"1"}},{"base_weights":[-3.0051803E-2,-8.792333E-3,8.5353404E-1,-1.7130445E-3,6.486416E-3],"categories":[],"categories_nodes":[],"categories_segments":[],"categories_sizes":[],"default_left":[0,0,0,0,0],"id":62,"left_children":[1,-1,3,-1,-1],"loss_changes":[5.128918E1,0E0,1.2257765E1,0E0,0E0],"parents":[2147483647,0,0,2,2],"right_children":[2,-1,4,-1,-1],"split_conditions":[7.103715E-1,-8.792333E-3,2.6911023E0,-1.7130445E-3,6.486416E-3],"split_indices":[598,0,1616,0,0],"split_type":[0,0,0,0,0],"sum_hessian":[3.1595028E1,1.0356827E1,2.1238201E1,5.802561E0,1.543564E1],"tree_param":{"num_deleted":"0","num_feature":"2048","num_nodes":"5","size_leaf_vector":"1"}},{"base_weights":[3.8940184E-2,-1.1531706E0,6.0961735E-3,-9.322148E-3,9.7165286E-4],"categories":[],"categories_nodes":[],"categories_segments":[],"categories_sizes":[],"default_left":[0,0,0,0,0],"id":63,"left_children":[1,3,-1,-1,-1],"loss_changes":[4.152315E1,1.4462385E1,0E0,0E0,0E0],"parents":[2147483647,0,0,1,1],"right_children":[2,4,-1,-1,-1],"split_conditions":[3.176912E0,1.2698449E-1,6.0961735E-3,-9.322148E-3,9.7165286E-4],"split_indices":[1616,1912,0,0,0],"split_type":[0,0,0,0,0],"sum_hessian":[2.7511238E1,1.3694324E1,1.3816914E1,8.716989E0,4.9773355E0],"tree_param":{"num_deleted":"0","num_feature":"2048","num_nodes":"5","size_leaf_vector":"1"}},{"base_weights":[2.0256098E-3,-1.1535076E0,6.04578E-3,-9.429613E-3,2.0849027E-3],"categories":[],"categories_nodes":[],"categories_segments":[],"categories_sizes":[],"default_left":[0,0,0,0,0],"id":64,"left_children":[1,3,-1,-1,-1],"loss_changes":[4.012577E1,1.7702631E1,0E0,0E0,0E0],"parents":[2147483647,0,0,1,1],"right_children":[2,4,-1,-1,-1],"split_conditions":[3.176912E0,6.723974E-2,6.04578E-3,-9.429613E-3,2.0849027E-3],"split_indices":[1616,1078,0,0,0],"split_type":[0,0,0,0,0],"sum_hessian":[2.6766163E1,1.3693812E1,1.30723505E1,9.206003E0,4.4878087E0],"tree_param":{"num_deleted":"0","num_feature":"2048","num_nodes":"5","size_leaf_vector":"1"}},{"base_weights":[1.8782634E-2,-1.1939925E0,6.11981E-3,-9.377813E-3,2.0772389E-3],"categories":[],"categories_nodes":[],"categories_segments":[],"categories_sizes":[],"default_left":[0,0,0,0,0],"id":65,"left_children":[1,3,-1,-1,-1],"loss_changes":[4.6033894E1,1.8017815E1,0E0,0E0,0E0],"parents":[2147483647,0,0,1,1],"right_children":[2,4,-1,-1,-1],"split_conditions":[3.176912E0,6.723974E-2,6.11981E-3,-9.377813E-3,2.0772389E-3],"split_indices":[1616,1078,0,0,0],"split_type":[0,0,0,0,0],"sum_hessian":[2.9495237E1,1.4701781E1,1.4793456E1,1.0216242E1,4.4855394E0],"tree_param":{"num_deleted":"0","num_feature":"2048","num_nodes":"5","size_leaf_vector":"1"}},{"base_weights":[8.60578E-2,-1.1815007E0,6.0898205E-3,-9.1947E-3,1.5363215E-3],"categories":[],"categories_nodes":[],"categories_segments":[],"categories_sizes":[],"default_left":[0,0,0,0,0],"id":66,"left_children":[1,3,-1,-1,-1],"loss_changes":[4.19067E1,1.4095886E1,0E0,0E0,0E0],"parents":[2147483647,0,0,1,1],"right_children":[2,4,-1,-1,-1],"split_conditions":[3.176912E0,1.1837411E0,6.0898205E-3,-9.1947E-3,1.5363215E-3],"split_indices":[1616,598,0,0,0],"split_type":[0,0,0,0,0],"sum_hessian":[2.7204983E1,1.2808647E1,1.4396336E1,8.726518E0,4.08213E0],"tree_param":{"num_deleted":"0","num_feature":"2048","num_nodes":"5","size_leaf_vector":"1"}},{"base_weights":[6.4248115E-2,-1.1696562E0,6.3791648E-3,2.644273E-3,-9.433007E-3],"categories":[],"categories_nodes":[],"categories_segments":[],"categories_sizes":[],"default_left":[0,0,0,0,0],"id":67,"left_children":[1,3,-1,-1,-1],"loss_changes":[4.4846947E1,1.9137379E1,0E0,0E0,0E0],"parents":[2147483647,0,0,1,1],"right_children":[2,4,-1,-1,-1],"split_conditions":[4.137695E0,2.7543944E-1,6.3791648E-3,2.644273E-3,-9.433007E-3],"split_indices":[1616,1955,0,0,0],"split_type":[0,0,0,0,0],"sum_hessian":[2.7999454E1,1.3885012E1,1.4114443E1,4.1950183E0,9.689993E0],"tree_param":{"num_deleted":"0","num_feature":"2048","num_nodes":"5","size_leaf_vector":"1"}},{"base_weights":[-1.3653922E-1,-8.466671E-3,7.352341E-1,6.127252E-3,-3.8607798E-3],"categories":[],"categories_nodes":[],"categories_segments":[],"categories_sizes":[],"default_left":[0,0,0,0,0],"id":68,"left_children":[1,-1,3,-1,-1],"loss_changes":[3.9254368E1,0E0,1.4725932E1,0E0,0E0],"parents":[2147483647,0,0,2,2],"right_children":[2,-1,4,-1,-1],"split_conditions":[6.53185E-1,-8.466671E-3,7.939521E-1,6.127252E-3,-3.8607798E-3],"split_indices":[598,0,50,0,0],"split_type":[0,0,0,0,0],"sum_hessian":[2.6999235E1,9.357633E0,1.7641603E1,1.3458466E1,4.183138E0],"tree_param":{"num_deleted":"0","num_feature":"2048","num_nodes":"5","size_leaf_vector":"1"}},{"base_weights":[1.3940458E-1,-1.4305372E0,9.991464E-1,-3.7906473E-3,-8.698363E-3,6.485675E-3,-4.5822485E-4],"categories":[],"categories_nodes":[],"categories_segments":[],"categories_sizes":[],"default_left":[0,0,0,0,0,0,0],"id":69,"left_children":[1,3,5,-1,-1,-1,-1],"loss_changes":[4.1713474E1,9.362259E-1,6.592737E0,0E0,0E0,0E0,0E0],"parents":[2147483647,0,0,1,1,2,2],"right_children":[2,4,6,-1,-1,-1,-1],"split_conditions":[2.1154916E0,2.6268506E-1,1.3585591E-1,-3.7906473E-3,-8.698363E-3,6.485675E-3,-4.5822485E-4],"split_indices":[1616,1374,563,0,0,0,0],"split_type":[0,0,0,0,0,0,0],"sum_hessian":[2.884896E1,9.969143E0,1.887982E1,4.2372866E0,5.731856E0,1.4687424E1,4.192395E0],"tree_param":{"num_deleted":"0","num_feature":"2048","num_nodes":"7","size_leaf_vector":"1"}},{"base_weights":[2.055487E-2,-8.332021E-3,8.8656014E-1,6.1085895E-3,-1.3008135E-3],"categories":[],"categories_nodes":[],"categories_segments":[],"categories_sizes":[],"default_left":[0,0,0,0,0],"id":70,"left_children":[1,-1,3,-1,-1],"loss_changes":[4.2445007E1,0E0,7.7028847E0,0E0,0E0],"parents":[2147483647,0,0,2,2],"right_children":[2,-1,4,-1,-1],"split_conditions":[6.53185E-1,-8.332021E-3,1.4024876E0,6.1085895E-3,-1.3008135E-3],"split_indices":[598,0,1038,0,0],"split_type":[0,0,0,0,0],"sum_hessian":[2.7047785E1,8.857595E0,1.819019E1,1.4032244E1,4.157945E0],"tree_param":{"num_deleted":"0","num_feature":"2048","num_nodes":"5","size_leaf_vector":"1"}},{"base_weights":[4.862144E-2,-1.2801037E0,6.3515063E-3,1.429448E-4,-9.153989E-3],"categories":[],"categories_nodes":[],"categories_segments":[],"categories_sizes":[],"default_left":[0,0,0,0,0],"id":71,"left_children":[1,3,-1,-1,-1],"loss_changes":[4.783649E1,1.0254023E1,0E0,0E0,0E0],"parents":[2147483647,0,0,1,1],"right_children":[2,4,-1,-1,-1],"split_conditions":[3.176912E0,6.0185462E-2,6.3515063E-3,1.429448E-4,-9.153989E-3],"split_indices":[1616,1274,0,0,0],"split_type":[0,0,0,0,0],"sum_hessian":[2.7467402E1,1.3130443E1,1.4336958E1,4.164256E0,8.966187E0],"tree_param":{"num_deleted":"0","num_feature":"2048","num_nodes":"5","size_leaf_vector":"1"}},{"base_weights":[9.957911E-3,-1.1583878E0,6.3230535E-3,-9.079229E-3,2.5568616E-3],"categories":[],"categories_nodes":[],"categories_segments":[],"categories_sizes":[],"default_left":[0,0,0,0,0],"id":72,"left_children":[1,3,-1,-1,-1],"loss_changes":[4.4390137E1,1.8155653E1,0E0,0E0,0E0],"parents":[2147483647,0,0,1,1],"right_children":[2,4,-1,-1,-1],"split_conditions":[3.0663912E0,1.2084528E0,6.3230535E-3,-9.079229E-3,2.5568616E-3],"split_indices":[1616,802,0,0,0],"split_type":[0,0,0,0,0],"sum_hessian":[2.828242E1,1.4680522E1,1.3601897E1,1.0474679E1,4.205843E0],"tree_param":{"num_deleted":"0","num_feature":"2048","num_nodes":"5","size_leaf_vector":"1"}},{"base_weights":[-2.7998812E-2,-1.2405598E0,6.322908E-3,-9.093955E-3,1.5465044E-3],"categories":[],"categories_nodes":[],"categories_segments":[],"categories_sizes":[],"default_left":[0,0,0,0,0],"id":73,"left_children":[1,3,-1,-1,-1],"loss_changes":[4.7257782E1,1.4513065E1,0E0,0E0,0E0],"parents":[2147483647,0,0,1,1],"right_children":[2,4,-1,-1,-1],"split_conditions":[3.176912E0,1.2194365E0,6.322908E-3,-9.093955E-3,1.5465044E-3],"split_indices":[1616,598,0,0,0],"split_type":[0,0,0,0,0],"sum_hessian":[2.815095E1,1.4549832E1,1.3601117E1,1.0474774E1,4.075058E0],"tree_param":{"num_deleted":"0","num_feature":"2048","num_nodes":"5","size_leaf_vector":"1"}},{"base_weights":[1.4228697E-2,-8.776026E-3,8.090274E-1,6.1634853E-3,-2.7900445E-3],"categories":[],"categories_nodes":[],"categories_segments":[],"categories_sizes":[],"default_left":[0,0,0,0,0],"id":74,"left_children":[1,-1,3,-1,-1],"loss_changes":[3.9548573E1,0E0,1.19313545E1,0E0,0E0],"parents":[2147483647,0,0,2,2],"right_children":[2,-1,4,-1,-1],"split_conditions":[7.103715E-1,-8.776026E-3,1.1545465E0,6.1634853E-3,-2.7900445E-3],"split_indices":[598,0,50,0,0],"split_type":[0,0,0,0,0],"sum_hessian":[2.6118568E1,7.7171617E0,1.8401407E1,1.4128355E1,4.2730517E0],"tree_param":{"num_deleted":"0","num_feature":"2048","num_nodes":"5","size_leaf_vector":"1"}},{"base_weights":[-4.113639E-2,-1.3043503E0,6.008296E-3,-9.061176E-3,1.1416205E-4],"categories":[],"categories_nodes":[],"categories_segments":[],"categories_sizes":[],"default_left":[0,0,0,0,0],"id":75,"left_children":[1,3,-1,-1,-1],"loss_changes":[4.7946163E1,1.0260384E1,0E0,0E0,0E0],"parents":[2147483647,0,0,1,1],"right_children":[2,4,-1,-1,-1],"split_conditions":[3.0663912E0,4.0209725E-2,6.008296E-3,-9.061176E-3,1.1416205E-4],"split_indices":[1616,1078,0,0,0],"split_type":[0,0,0,0,0],"sum_hessian":[2.8541538E1,1.4133923E1,1.4407616E1,9.963254E0,4.1706696E0],"tree_param":{"num_deleted":"0","num_feature":"2048","num_nodes":"5","size_leaf_vector":"1"}},{"base_weights":[-7.2147295E-2,-1.2420758E0,5.9508467E-3,-9.034682E-3,1.5737811E-3],"categories":[],"categories_nodes":[],"categories_segments":[],"categories_sizes":[],"default_left":[0,0,0,0,0],"id":76,"left_children":[1,3,-1,-1,-1],"loss_changes":[4.491049E1,1.4439777E1,0E0,0E0,0E0],"parents":[2147483647,0,0,1,1],"right_children":[2,4,-1,-1,-1],"split_conditions":[3.176912E0,1.2403106E-1,5.9508467E-3,-9.034682E-3,1.5737811E-3],"split_indices":[1616,183,0,0,0],"split_type":[0,0,0,0,0],"sum_hessian":[2.8408922E1,1.4756447E1,1.3652475E1,1.0714655E1,4.041792E0],"tree_param":{"num_deleted":"0","num_feature":"2048","num_nodes":"5","size_leaf_vector":"1"}},{"base_weights":[-5.185901E-2,-1.0985811E0,1.0027561E0,-9.037857E-3,2.3385773E-3,1.1684974E-3,6.3462425E-3],"categories":[],"categories_nodes":[],"categories_segments":[],"categories_sizes":[],"default_left":[0,0,0,0,0,0,0],"id":77,"left_children":[1,3,5,-1,-1,-1,-1],"loss_changes":[3.27352E1,1.7364685E1,2.719943E0,0E0,0E0,0E0,0E0],"parents":[2147483647,0,0,1,1,2,2],"right_children":[2,4,6,-1,-1,-1,-1],"split_conditions":[1.1644607E-1,2.0512863E-1,2.5416149E-2,-9.037857E-3,2.3385773E-3,1.1684974E-3,6.3462425E-3],"split_indices":[183,1906,317,0,0,0,0],"split_type":[0,0,0,0,0,0,0],"sum_hessian":[2.7655628E1,1.386359E1,1.3792038E1,9.441982E0,4.4216075E0,4.041976E0,9.750062E0],"tree_param":{"num_deleted":"0","num_feature":"2048","num_nodes":"7","size_leaf_vector":"1"}},{"base_weights":[-1.9068061E-3,-8.143788E-3,8.8232267E-1,-1.6524134E-3,6.280335E-3],"categories":[],"categories_nodes":[],"categories_segments":[],"categories_sizes":[],"default_left":[0,0,0,0,0],"id":78,"left_children":[1,-1,3,-1,-1],"loss_changes":[4.222292E1,0E0,9.041297E0,0E0,0E0],"parents":[2147483647,0,0,2,2],"right_children":[2,-1,4,-1,-1],"split_conditions":[7.103715E-1,-8.143788E-3,2.4706445E0,-1.6524134E-3,6.280335E-3],"split_indices":[598,0,1616,0,0],"split_type":[0,0,0,0,0],"sum_hessian":[2.734765E1,9.337443E0,1.8010208E1,4.2636395E0,1.3746568E1],"tree_param":{"num_deleted":"0","num_feature":"2048","num_nodes":"5","size_leaf_vector":"1"}},{"base_weights":[2.5029883E-2,-1.1291308E0,5.9560672E-3,-8.952519E-3,2.5680074E-3],"categories":[],"categories_nodes":[],"categories_segments":[],"categories_sizes":[],"default_left":[0,0,0,0,0],"id":79,"left_children":[1,3,-1,-1,-1],"loss_changes":[4.1234753E1,1.7668068E1,0E0,0E0,0E0],"parents":[2147483647,0,0,1,1],"right_children":[2,4,-1,-1,-1],"split_conditions":[3.176912E0,1.2084528E0,5.9560672E-3,-8.952519E-3,2.5680074E-3],"split_indices":[1616,802,0,0,0],"split_type":[0,0,0,0,0],"sum_hessian":[2.8636093E1,1.4403894E1,1.4232199E1,1.0209591E1,4.194304E0],"tree_param":{"num_deleted":"0","num_feature":"2048","num_nodes":"5","size_leaf_vector":"1"}},{"base_weights":[-8.6734425E-3,-7.8516435E-3,8.5931313E-1,-1.4499794E-3,6.3283066E-3],"categories":[],"categories_nodes":[],"categories_segments":[],"categories_sizes":[],"default_left":[0,0,0,0,0],"id":80,"left_children":[1,-1,3,-1,-1],"loss_changes":[3.44605E1,0E0,8.007667E0,0E0,0E0],"parents":[2147483647,0,0,2,2],"right_children":[2,-1,4,-1,-1],"split_conditions":[7.103715E-1,-7.8516435E-3,3.0243188E-1,-1.4499794E-3,6.3283066E-3],"split_indices":[598,0,1809,0,0],"split_type":[0,0,0,0,0],"sum_hessian":[2.3422052E1,8.082543E0,1.5339509E1,4.0751495E0,1.1264359E1],"tree_param":{"num_deleted":"0","num_feature":"2048","num_nodes":"5","size_leaf_vector":"1"}},{"base_weights":[-5.1317643E-2,-8.604115E-3,8.5355103E-1,6.324766E-3,-2.189497E-3],"categories":[],"categories_nodes":[],"categories_segments":[],"categories_sizes":[],"default_left":[0,0,0,0,0],"id":81,"left_children":[1,-1,3,-1,-1],"loss_changes":[4.16987E1,0E0,1.008893E1,0E0,0E0],"parents":[2147483647,0,0,2,2],"right_children":[2,-1,4,-1,-1],"split_conditions":[7.103715E-1,-8.604115E-3,1.0967464E-1,6.324766E-3,-2.189497E-3],"split_indices":[598,0,702,0,0],"split_type":[0,0,0,0,0],"sum_hessian":[2.5624523E1,8.693716E0,1.6930809E1,1.2861828E1,4.0689807E0],"tree_param":{"num_deleted":"0","num_feature":"2048","num_nodes":"5","size_leaf_vector":"1"}},{"base_weights":[-3.7220534E-2,-1.3155416E0,5.8855903E-3,-1.2606374E-3,-8.814083E-3],"categories":[],"categories_nodes":[],"categories_segments":[],"categories_sizes":[],"default_left":[0,0,0,0,0],"id":82,"left_children":[1,3,-1,-1,-1],"loss_changes":[4.362635E1,6.0426884E0,0E0,0E0,0E0],"parents":[2147483647,0,0,1,1],"right_children":[2,4,-1,-1,-1],"split_conditions":[3.176912E0,7.381335E-1,5.8855903E-3,-1.2606374E-3,-8.814083E-3],"split_indices":[1616,192,0,0,0],"split_type":[0,0,0,0,0],"sum_hessian":[2.6105598E1,1.2681168E1,1.3424432E1,4.224148E0,8.45702E0],"tree_param":{"num_deleted":"0","num_feature":"2048","num_nodes":"5","size_leaf_vector":"1"}},{"base_weights":[-1.718792E-2,-1.233287E0,5.997307E-3,-8.880228E-3,1.2117198E-3],"categories":[],"categories_nodes":[],"categories_segments":[],"categories_sizes":[],"default_left":[0,0,0,0,0],"id":83,"left_children":[1,3,-1,-1,-1],"loss_changes":[4.8817436E1,1.3659168E1,0E0,0E0,0E0],"parents":[2147483647,0,0,1,1],"right_children":[2,4,-1,-1,-1],"split_conditions":[3.176912E0,1.2698449E-1,5.997307E-3,-8.880228E-3,1.2117198E-3],"split_indices":[1616,1912,0,0,0],"split_type":[0,0,0,0,0],"sum_hessian":[3.0994389E1,1.5497972E1,1.5496417E1,1.1186578E1,4.3113947E0],"tree_param":{"num_deleted":"0","num_feature":"2048","num_nodes":"5","size_leaf_vector":"1"}},{"base_weights":[1.317804E-2,-1.2007731E0,5.890558E-3,-8.763426E-3,3.4916482E-4],"categories":[],"categories_nodes":[],"categories_segments":[],"categories_sizes":[],"default_left":[0,0,0,0,0],"id":84,"left_children":[1,3,-1,-1,-1],"loss_changes":[3.998958E1,9.850857E0,0E0,0E0,0E0],"parents":[2147483647,0,0,1,1],"right_children":[2,4,-1,-1,-1],"split_conditions":[3.0016966E0,1.01042114E-1,5.890558E-3,-8.763426E-3,3.4916482E-4],"split_indices":[1616,1503,0,0,0],"split_type":[0,0,0,0,0],"sum_hessian":[2.6277552E1,1.2848779E1,1.3428773E1,8.698765E0,4.150014E0],"tree_param":{"num_deleted":"0","num_feature":"2048","num_nodes":"5","size_leaf_vector":"1"}},{"base_weights":[3.7929256E-2,-1.3870646E0,9.5266986E-1,-3.4094262E-3,-8.413722E-3,6.3209543E-3,-5.9089565E-4],"categories":[],"categories_nodes":[],"categories_segments":[],"categories_sizes":[],"default_left":[0,0,0,0,0,0,0],"id":85,"left_children":[1,3,5,-1,-1,-1,-1],"loss_changes":[3.9723778E1,1.3147888E0,6.346348E0,0E0,0E0,0E0,0E0],"parents":[2147483647,0,0,1,1,2,2],"right_children":[2,4,6,-1,-1,-1,-1],"split_conditions":[2.0604014E0,2.6268506E-1,4.3655738E-1,-3.4094262E-3,-8.413722E-3,6.3209543E-3,-5.9089565E-4],"split_indices":[1616,1374,810,0,0,0,0],"split_type":[0,0,0,0,0,0,0],"sum_hessian":[2.8464302E1,1.09222355E1,1.7542067E1,4.21343E0,6.708805E0,1.3456283E1,4.085784E0],"tree_param":{"num_deleted":"0","num_feature":"2048","num_nodes":"7","size_leaf_vector":"1"}},{"base_weights":[-3.7219245E-2,-1.1626856E0,5.8483956E-3,-8.782428E-3,1.7388215E-3],"categories":[],"categories_nodes":[],"categories_segments":[],"categories_sizes":[],"default_left":[0,0,0,0,0],"id":86,"left_children":[1,3,-1,-1,-1],"loss_changes":[3.9411877E1,1.4080112E1,0E0,0E0,0E0],"parents":[2147483647,0,0,1,1],"right_children":[2,4,-1,-1,-1],"split_conditions":[3.176912E0,6.723974E-2,5.8483956E-3,-8.782428E-3,1.7388215E-3],"split_indices":[1616,1078,0,0,0],"split_type":[0,0,0,0,0],"sum_hessian":[2.7013927E1,1.4001789E1,1.3012139E1,9.938442E0,4.0633464E0],"tree_param":{"num_deleted":"0","num_feature":"2048","num_nodes":"5","size_leaf_vector":"1"}},{"base_weights":[5.4646432E-2,-7.34177E-3,8.893004E-1,-1.8703762E-3,6.3614002E-3],"categories":[],"categories_nodes":[],"categories_segments":[],"categories_sizes":[],"default_left":[0,0,0,0,0],"id":87,"left_children":[1,-1,3,-1,-1],"loss_changes":[3.8307167E1,0E0,9.88759E0,0E0,0E0],"parents":[2147483647,0,0,2,2],"right_children":[2,-1,4,-1,-1],"split_conditions":[7.103715E-1,-7.34177E-3,1.0695095E-2,-1.8703762E-3,6.3614002E-3],"split_indices":[598,0,1279,0,0],"split_type":[0,0,0,0,0],"sum_hessian":[2.8112478E1,9.67932E0,1.8433159E1,4.287307E0,1.4145851E1],"tree_param":{"num_deleted":"0","num_feature":"2048","num_nodes":"5","size_leaf_vector":"1"}},{"base_weights":[1.8309641E-1,-7.181218E-3,1.0115958E0,5.198124E-4,6.2990477E-3],"categories":[],"categories_nodes":[],"categories_segments":[],"categories_sizes":[],"default_left":[0,0,0,0,0],"id":88,"left_children":[1,-1,3,-1,-1],"loss_changes":[3.9212383E1,0E0,4.1835365E0,0E0,0E0],"parents":[2147483647,0,0,2,2],"right_children":[2,-1,4,-1,-1],"split_conditions":[7.103715E-1,-7.181218E-3,2.4335077E-2,5.198124E-4,6.2990477E-3],"split_indices":[598,0,914,0,0],"split_type":[0,0,0,0,0],"sum_hessian":[2.714781E1,8.936126E0,1.8211685E1,4.2242336E0,1.3987452E1],"tree_param":{"num_deleted":"0","num_feature":"2048","num_nodes":"5","size_leaf_vector":"1"}},{"base_weights":[-3.1847727E-2,-1.0621696E0,6.155121E-3,-8.157364E-3,2.638221E-3],"categories":[],"categories_nodes":[],"categories_segments":[],"categories_sizes":[],"default_left":[0,0,0,0,0],"id":89,"left_children":[1,3,-1,-1,-1],"loss_changes":[3.9608776E1,1.6034317E1,0E0,0E0,0E0],"parents":[2147483647,0,0,1,1],"right_children":[2,4,-1,-1,-1],"split_conditions":[3.0663912E0,1.2403106E-1,6.155121E-3,-8.157364E-3,2.638221E-3],"split_indices":[1616,183,0,0,0],"split_type":[0,0,0,0,0],"sum_hessian":[2.8437403E1,1.5752484E1,1.2684917E1,1.1584299E1,4.168185E0],"tree_param":{"num_deleted":"0","num_feature":"2048","num_nodes":"5","size_leaf_vector":"1"}},{"base_weights":[6.577149E-2,-1.1194597E0,6.198153E-3,-8.335235E-3,1.7507668E-3],"categories":[],"categories_nodes":[],"categories_segments":[],"categories_sizes":[],"default_left":[0,0,0,0,0],"id":90,"left_children":[1,3,-1,-1,-1],"loss_changes":[4.329493E1,1.3077391E1,0E0,0E0,0E0],"parents":[2147483647,0,0,1,1],"right_children":[2,4,-1,-1,-1],"split_conditions":[4.137695E0,4.0209725E-2,6.198153E-3,-8.335235E-3,1.7507668E-3],"split_indices":[1616,1078,0,0,0],"split_type":[0,0,0,0,0],"sum_hessian":[2.9120157E1,1.4508712E1,1.4611446E1,1.0477274E1,4.0314384E0],"tree_param":{"num_deleted":"0","num_feature":"2048","num_nodes":"5","size_leaf_vector":"1"}},{"base_weights":[1.251101E-1,-7.6448447E-3,8.18114E-1,5.851538E-3,-2.561085E-3],"categories":[],"categories_nodes":[],"categories_segments":[],"categories_sizes":[],"default_left":[0,0,0,0,0],"id":91,"left_children":[1,-1,3,-1,-1],"loss_changes":[3.5969753E1,0E0,1.0916283E1,0E0,0E0],"parents":[2147483647,0,0,2,2],"right_children":[2,-1,4,-1,-1],"split_conditions":[7.103715E-1,-7.6448447E-3,1.2508813E-1,5.851538E-3,-2.561085E-3],"split_indices":[598,0,702,0,0],"split_type":[0,0,0,0,0],"sum_hessian":[2.9294428E1,8.289092E0,2.1005335E1,1.6709455E1,4.2958784E0],"tree_param":{"num_deleted":"0","num_feature":"2048","num_nodes":"5","size_leaf_vector":"1"}},{"base_weights":[1.3104166E-1,-7.109864E-3,1.0021919E0,6.275311E-3,3.4249073E-4],"categories":[],"categories_nodes":[],"categories_segments":[],"categories_sizes":[],"default_left":[0,0,0,0,0],"id":92,"left_children":[1,-1,3,-1,-1],"loss_changes":[4.0304214E1,0E0,4.387474E0,0E0,0E0],"parents":[2147483647,0,0,2,2],"right_children":[2,-1,4,-1,-1],"split_conditions":[2.0604014E0,-7.109864E-3,4.525538E-1,6.275311E-3,3.4249073E-4],"split_indices":[1616,0,810,0,0],"split_type":[0,0,0,0,0],"sum_hessian":[2.7740534E1,9.737519E0,1.8003016E1,1.3887099E1,4.115916E0],"tree_param":{"num_deleted":"0","num_feature":"2048","num_nodes":"5","size_leaf_vector":"1"}},{"base_weights":[1.4801265E-3,-1.0190307E0,5.7974854E-3,-7.996136E-3,2.527934E-3],"categories":[],"categories_nodes":[],"categories_segments":[],"categories_sizes":[],"default_left":[0,0,0,0,0],"id":93,"left_children":[1,3,-1,-1,-1],"loss_changes":[3.5539577E1,1.4956142E1,0E0,0E0,0E0],"parents":[2147483647,0,0,1,1],"right_children":[2,4,-1,-1,-1],"split_conditions":[3.0663912E0,1.2357975E0,5.7974854E-3,-7.996136E-3,2.527934E-3],"split_indices":[1616,802,0,0,0],"split_type":[0,0,0,0,0],"sum_hessian":[2.8072191E1,1.4981246E1,1.3090945E1,1.0820936E1,4.16031E0],"tree_param":{"num_deleted":"0","num_feature":"2048","num_nodes":"5","size_leaf_vector":"1"}},{"base_weights":[3.918383E-2,-1.0293123E0,5.841609E-3,-8.089723E-3,2.6525701E-3],"categories":[],"categories_nodes":[],"categories_segments":[],"categories_sizes":[],"default_left":[0,0,0,0,0],"id":94,"left_children":[1,3,-1,-1,-1],"loss_changes":[3.807399E1,1.5769846E1,0E0,0E0,0E0],"parents":[2147483647,0,0,1,1],"right_children":[2,4,-1,-1,-1],"split_conditions":[3.176912E0,6.1526066E-1,5.841609E-3,-8.089723E-3,2.6525701E-3],"split_indices":[1616,316,0,0,0],"split_type":[0,0,0,0,0],"sum_hessian":[2.9560013E1,1.5228723E1,1.4331289E1,1.10339775E1,4.1947455E0],"tree_param":{"num_deleted":"0","num_feature":"2048","num_nodes":"5","size_leaf_vector":"1"}},{"base_weights":[7.313329E-3,-1.2250955E0,9.644186E-1,-8.426925E-3,-8.221426E-4,6.2221913E-3,4.1273894E-4],"categories":[],"categories_nodes":[],"categories_segments":[],"categories_sizes":[],"default_left":[0,0,0,0,0,0,0],"id":95,"left_children":[1,3,5,-1,-1,-1,-1],"loss_changes":[3.487246E1,6.0133247E0,3.9936905E0,0E0,0E0,0E0,0E0],"parents":[2147483647,0,0,1,1,2,2],"right_children":[2,4,6,-1,-1,-1,-1],"split_conditions":[9.4564396E-1,7.928295E-2,2.1723838E-1,-8.426925E-3,-8.221426E-4,6.2221913E-3,4.1273894E-4],"split_indices":[1877,183,995,0,0,0,0],"split_type":[0,0,0,0,0,0,0],"sum_hessian":[2.7564878E1,1.1922508E1,1.564237E1,7.8970647E0,4.0254436E0,1.1551847E1,4.090523E0],"tree_param":{"num_deleted":"0","num_feature":"2048","num_nodes":"7","size_leaf_vector":"1"}},{"base_weights":[-3.616794E-2,5.7564783E-3,-1.0830499E0,-8.155322E-3,2.155932E-3],"categories":[],"categories_nodes":[],"categories_segments":[],"categories_sizes":[],"default_left":[0,0,0,0,0],"id":96,"left_children":[1,-1,3,-1,-1],"loss_changes":[3.744539E1,0E0,1.3988695E1,0E0,0E0],"parents":[2147483647,0,0,2,2],"right_children":[2,-1,4,-1,-1],"split_conditions":[3.4628698E-1,5.7564783E-3,1.2701167E0,-8.155322E-3,2.155932E-3],"split_indices":[1955,0,1383,0,0],"split_type":[0,0,0,0,0],"sum_hessian":[2.8119268E1,1.3123816E1,1.4995452E1,1.0958817E1,4.0366354E0],"tree_param":{"num_deleted":"0","num_feature":"2048","num_nodes":"5","size_leaf_vector":"1"}},{"base_weights":[1.1956914E-2,-1.0688411E0,6.079968E-3,-8.472698E-3,2.410915E-3],"categories":[],"categories_nodes":[],"categories_segments":[],"categories_sizes":[],"default_left":[0,0,0,0,0],"id":97,"left_children":[1,3,-1,-1,-1],"loss_changes":[3.686891E1,1.5319302E1,0E0,0E0,0E0],"parents":[2147483647,0,0,1,1],"right_children":[2,4,-1,-1,-1],"split_conditions":[4.137695E0,1.1566937E0,6.079968E-3,-8.472698E-3,2.410915E-3],"split_indices":[1616,802,0,0,0],"split_type":[0,0,0,0,0],"sum_hessian":[2.6332033E1,1.3930956E1,1.2401078E1,9.865167E0,4.0657887E0],"tree_param":{"num_deleted":"0","num_feature":"2048","num_nodes":"5","size_leaf_vector":"1"}},{"base_weights":[2.0755166E-2,-1.1246027E0,5.8101187E-3,-8.357785E-3,1.4419174E-3],"categories":[],"categories_nodes":[],"categories_segments":[],"categories_sizes":[],"default_left":[0,0,0,0,0],"id":98,"left_children":[1,3,-1,-1,-1],"loss_changes":[3.8956585E1,1.1995155E1,0E0,0E0,0E0],"parents":[2147483647,0,0,1,1],"right_children":[2,4,-1,-1,-1],"split_conditions":[3.176912E0,1.2194365E0,5.8101187E-3,-8.357785E-3,1.4419174E-3],"split_indices":[1616,598,0,0,0],"split_type":[0,0,0,0,0],"sum_hessian":[2.780242E1,1.3879265E1,1.3923154E1,9.879197E0,4.0000677E0],"tree_param":{"num_deleted":"0","num_feature":"2048","num_nodes":"5","size_leaf_vector":"1"}},{"base_weights":[1.9705482E-2,-1.2368503E0,5.812001E-3,-9.701652E-4,-8.339122E-3],"categories":[],"categories_nodes":[],"categories_segments":[],"categories_sizes":[],"default_left":[0,0,0,0,0],"id":99,"left_children":[1,3,-1,-1,-1],"loss_changes":[4.1662163E1,5.8701706E0,0E0,0E0,0E0],"parents":[2147483647,0,0,1,1],"right_children":[2,4,-1,-1,-1],"split_conditions":[3.176912E0,9.255746E-2,5.812001E-3,-9.701652E-4,-8.339122E-3],"split_indices":[1616,1436,0,0,0],"split_type":[0,0,0,0,0],"sum_hessian":[2.7014713E1,1.28229265E1,1.4191786E1,4.1806173E0,8.642309E0],"tree_param":{"num_deleted":"0","num_feature":"2048","num_nodes":"5","size_leaf_vector":"1"}},{"base_weights":[5.1275704E-2,-1.0092582E0,1.0708379E0,-8.265639E-3,2.110853E-3,6.0858703E-3,2.7934967E-3],"categories":[],"categories_nodes":[],"categories_segments":[],"categories_sizes":[],"default_left":[0,0,0,0,0,0,0],"id":100,"left_children":[1,3,5,-1,-1,-1,-1],"loss_changes":[2.9996012E1,1.3260548E1,3.6071587E-1,0E0,0E0,0E0,0E0],"parents":[2147483647,0,0,1,1,2,2],"right_children":[2,4,6,-1,-1,-1,-1],"split_conditions":[2.0512863E-1,9.4564396E-1,7.657105E-2,-8.265639E-3,2.110853E-3,6.0858703E-3,2.7934967E-3],"split_indices":[1906,1877,110,0,0,0,0],"split_type":[0,0,0,0,0,0,0],"sum_hessian":[2.5741123E1,1.2617195E1,1.3123927E1,8.600651E0,4.0165443E0,9.121432E0,4.0024953E0],"tree_param":{"num_deleted":"0","num_feature":"2048","num_nodes":"7","size_leaf_vector":"1"}},{"base_weights":[2.328226E-2,-1.0942111E0,6.0715834E-3,-8.216972E-3,1.5511721E-3],"categories":[],"categories_nodes":[],"categories_segments":[],"categories_sizes":[],"default_left":[0,0,0,0,0],"id":101,"left_children":[1,3,-1,-1,-1],"loss_changes":[3.8312523E1,1.1982603E1,0E0,0E0,0E0],"parents":[2147483647,0,0,1,1],"right_children":[2,4,-1,-1,-1],"split_conditions":[3.176912E0,1.131843E0,6.0715834E-3,-8.216972E-3,1.5511721E-3],"split_indices":[1616,598,0,0,0],"split_type":[0,0,0,0,0],"sum_hessian":[2.6786137E1,1.3857331E1,1.2928804E1,9.844714E0,4.012617E0],"tree_param":{"num_deleted":"0","num_feature":"2048","num_nodes":"5","size_leaf_vector":"1"}},{"base_weights":[-2.1838531E-1,-1.1243813E0,5.577628E-3,-8.44552E-3,1.6348745E-3],"categories":[],"categories_nodes":[],"categories_segments":[],"categories_sizes":[],"default_left":[0,0,0,0,0],"id":102,"left_children":[1,3,-1,-1,-1],"loss_changes":[3.519279E1,1.4684837E1,0E0,0E0,0E0],"parents":[2147483647,0,0,1,1],"right_children":[2,4,-1,-1,-1],"split_conditions":[3.176912E0,6.723974E-2,5.577628E-3,-8.44552E-3,1.6348745E-3],"split_indices":[1616,1078,0,0,0],"split_type":[0,0,0,0,0],"sum_hessian":[2.7082687E1,1.6226309E1,1.0856379E1,1.1568201E1,4.6581078E0],"tree_param":{"num_deleted":"0","num_feature":"2048","num_nodes":"5","size_leaf_vector":"1"}},{"base_weights":[-6.740953E-3,-1.3004426E0,8.661856E-1,-3.0685677E-3,-7.960017E-3,6.156943E-3,-1.08754E-3],"categories":[],"categories_nodes":[],"categories_segments":[],"categories_sizes":[],"default_left":[0,0,0,0,0,0,0],"id":103,"left_children":[1,3,5,-1,-1,-1,-1],"loss_changes":[3.308055E1,1.3641319E0,7.1993914E0,0E0,0E0,0E0,0E0],"parents":[2147483647,0,0,1,1,2,2],"right_children":[2,4,6,-1,-1,-1,-1],"split_conditions":[2.1154916E0,1.6153313E-2,1.2706544E-1,-3.0685677E-3,-7.960017E-3,6.156943E-3,-1.08754E-3],"split_indices":[1616,425,563,0,0,0,0],"split_type":[0,0,0,0,0,0,0],"sum_hessian":[2.729151E1,1.0802946E1,1.6488564E1,4.1552E0,6.647746E0,1.2237489E1,4.2510734E0],"tree_param":{"num_deleted":"0","num_feature":"2048","num_nodes":"7","size_leaf_vector":"1"}},{"base_weights":[-7.5895395E-3,-6.874728E-3,7.4736655E-1,5.5883555E-3,-1.992744E-3],"categories":[],"categories_nodes":[],"categories_segments":[],"categories_sizes":[],"default_left":[0,0,0,0,0],"id":104,"left_children":[1,-1,3,-1,-1],"loss_changes":[2.918486E1,0E0,8.181007E0,0E0,0E0],"parents":[2147483647,0,0,2,2],"right_children":[2,-1,4,-1,-1],"split_conditions":[7.103715E-1,-6.874728E-3,1.5346025E0,5.5883555E-3,-1.992744E-3],"split_indices":[598,0,1038,0,0],"split_type":[0,0,0,0,0],"sum_hessian":[2.6270334E1,9.057555E0,1.721278E1,1.3034146E1,4.178633E0],"tree_param":{"num_deleted":"0","num_feature":"2048","num_nodes":"5","size_leaf_vector":"1"}},{"base_weights":[-5.3974073E-2,-1.074924E0,5.6155333E-3,1.4061683E-3,-8.304929E-3],"categories":[],"categories_nodes":[],"categories_segments":[],"categories_sizes":[],"default_left":[0,0,0,0,0],"id":105,"left_children":[1,3,-1,-1,-1],"loss_changes":[3.2823154E1,1.2088312E1,0E0,0E0,0E0],"parents":[2147483647,0,0,1,1],"right_children":[2,4,-1,-1,-1],"split_conditions":[3.176912E0,1.5244441E-2,5.6155333E-3,1.4061683E-3,-8.304929E-3],"split_indices":[1616,1026,0,0,0],"split_type":[0,0,0,0,0],"sum_hessian":[2.5308823E1,1.3604307E1,1.1704515E1,4.256879E0,9.347428E0],"tree_param":{"num_deleted":"0","num_feature":"2048","num_nodes":"5","size_leaf_vector":"1"}},{"base_weights":[-2.6719844E-2,-7.174117E-3,8.908041E-1,6.1395806E-3,-5.956602E-4],"categories":[],"categories_nodes":[],"categories_segments":[],"categories_sizes":[],"default_left":[0,0,0,0,0],"id":106,"left_children":[1,-1,3,-1,-1],"loss_changes":[3.9666595E1,0E0,6.490161E0,0E0,0E0],"parents":[2147483647,0,0,2,2],"right_children":[2,-1,4,-1,-1],"split_conditions":[2.1154916E0,-7.174117E-3,1.3585591E-1,6.1395806E-3,-5.956602E-4],"split_indices":[1616,0,563,0,0],"split_type":[0,0,0,0,0],"sum_hessian":[2.870893E1,1.1108327E1,1.7600601E1,1.3041482E1,4.55912E0],"tree_param":{"num_deleted":"0","num_feature":"2048","num_nodes":"5","size_leaf_vector":"1"}},{"base_weights":[-1.4209579E-3,-1.1423155E0,5.686096E-3,-8.145762E-3,2.323746E-4],"categories":[],"categories_nodes":[],"categories_segments":[],"categories_sizes":[],"default_left":[0,0,0,0,0],"id":107,"left_children":[1,3,-1,-1,-1],"loss_changes":[3.683406E1,8.290552E0,0E0,0E0,0E0],"parents":[2147483647,0,0,1,1],"right_children":[2,4,-1,-1,-1],"split_conditions":[3.176912E0,1.05342954E-1,5.686096E-3,-8.145762E-3,2.323746E-4],"split_indices":[1616,183,0,0,0],"split_type":[0,0,0,0,0],"sum_hessian":[2.6354177E1,1.3166832E1,1.31873455E1,9.084503E0,4.082329E0],"tree_param":{"num_deleted":"0","num_feature":"2048","num_nodes":"5","size_leaf_vector":"1"}},{"base_weights":[-7.869814E-2,-1.1488305E0,5.6069884E-3,4.997708E-4,-8.270178E-3],"categories":[],"categories_nodes":[],"categories_segments":[],"categories_sizes":[],"default_left":[0,0,0,0,0],"id":108,"left_children":[1,3,-1,-1,-1],"loss_changes":[3.511137E1,9.278585E0,0E0,0E0,0E0],"parents":[2147483647,0,0,1,1],"right_children":[2,4,-1,-1,-1],"split_conditions":[3.176912E0,1.6643222E-3,5.6069884E-3,4.997708E-4,-8.270178E-3],"split_indices":[1616,290,0,0,0],"split_type":[0,0,0,0,0],"sum_hessian":[2.5336382E1,1.3420391E1,1.191599E1,4.0908456E0,9.329545E0],"tree_param":{"num_deleted":"0","num_feature":"2048","num_nodes":"5","size_leaf_vector":"1"}},{"base_weights":[6.764764E-2,-1.0946194E0,1.077473E0,-7.895912E-3,-2.9284318E-4,6.098759E-3,2.8966244E-3],"categories":[],"categories_nodes":[],"categories_segments":[],"categories_sizes":[],"default_left":[0,0,0,0,0,0,0],"id":109,"left_children":[1,3,5,-1,-1,-1,-1],"loss_changes":[3.1887577E1,6.244507E0,3.0369186E-1,0E0,0E0,0E0,0E0],"parents":[2147483647,0,0,1,1,2,2],"right_children":[2,4,6,-1,-1,-1,-1],"split_conditions":[3.7086475E-1,2.1154916E0,8.203399E-1,-7.895912E-3,-2.9284318E-4,6.098759E-3,2.8966244E-3],"split_indices":[1809,1616,1624,0,0,0,0],"split_type":[0,0,0,0,0,0,0],"sum_hessian":[2.5163988E1,1.1655323E1,1.3508664E1,7.57745E0,4.0778737E0,9.365178E0,4.1434855E0],"tree_param":{"num_deleted":"0","num_feature":"2048","num_nodes":"7","size_leaf_vector":"1"}},{"base_weights":[-4.5178324E-2,-1.2677045E0,5.9711463E-3,-1.980807E-3,-8.080942E-3],"categories":[],"categories_nodes":[],"categories_segments":[],"categories_sizes":[],"default_left":[0,0,0,0,0],"id":110,"left_children":[1,3,-1,-1,-1],"loss_changes":[3.8713867E1,3.2419586E0,0E0,0E0,0E0],"parents":[2147483647,0,0,1,1],"right_children":[2,4,-1,-1,-1],"split_conditions":[3.176912E0,2.008725E-1,5.9711463E-3,-1.980807E-3,-8.080942E-3],"split_indices":[1616,810,0,0,0],"split_type":[0,0,0,0,0],"sum_hessian":[2.3550556E1,1.1848589E1,1.1701967E1,4.0029335E0,7.8456554E0],"tree_param":{"num_deleted":"0","num_feature":"2048","num_nodes":"5","size_leaf_vector":"1"}},{"base_weights":[2.7642842E-2,-1.0572798E0,5.96854E-3,-8.100608E-3,1.2625323E-3],"categories":[],"categories_nodes":[],"categories_segments":[],"categories_sizes":[],"default_left":[0,0,0,0,0],"id":111,"left_children":[1,3,-1,-1,-1],"loss_changes":[3.547048E1,1.1136391E1,0E0,0E0,0E0],"parents":[2147483647,0,0,1,1],"right_children":[2,4,-1,-1,-1],"split_conditions":[3.176912E0,1.8863215E-1,5.96854E-3,-8.100608E-3,1.2625323E-3],"split_indices":[1616,122,0,0,0],"split_type":[0,0,0,0,0],"sum_hessian":[2.6039194E1,1.3532806E1,1.2506389E1,9.30497E0,4.227836E0],"tree_param":{"num_deleted":"0","num_feature":"2048","num_nodes":"5","size_leaf_vector":"1"}},{"base_weights":[-0E0,-1.0629458E0,5.6322245E-3,-8.143477E-3,1.2609974E-3],"categories":[],"categories_nodes":[],"categories_segments":[],"categories_sizes":[],"default_left":[0,0,0,0,0],"id":112,"left_children":[1,3,-1,-1,-1],"loss_changes":[3.3865726E1,1.1250841E1,0E0,0E0,0E0],"parents":[2147483647,0,0,1,1],"right_children":[2,4,-1,-1,-1],"split_conditions":[3.176912E0,1.4763051E0,5.6322245E-3,-8.143477E-3,1.2609974E-3],"split_indices":[1616,138,0,0,0],"split_type":[0,0,0,0,0],"sum_hessian":[2.6283743E1,1.3550669E1,1.2733074E1,9.313412E0,4.2372565E0],"tree_param":{"num_deleted":"0","num_feature":"2048","num_nodes":"5","size_leaf_vector":"1"}},{"base_weights":[6.2133342E-2,1.0841873E0,-9.437638E-1,6.13693E-3,2.8880658E-3,-7.6939682E-3,1.3368697E-3],"categories":[],"categories_nodes":[],"categories_segments":[],"categories_sizes":[],"default_left":[0,0,0,0,0,0,0],"id":113,"left_children":[1,3,5,-1,-1,-1,-1],"loss_changes":[3.0207748E1,3.2848167E-1,1.11157465E1,0E0,0E0,0E0,0E0],"parents":[2147483647,0,0,1,1,2,2],"right_children":[2,4,6,-1,-1,-1,-1],"split_conditions":[3.4996024E-1,1.0110773E0,4.9579892E-2,6.13693E-3,2.8880658E-3,-7.6939682E-3,1.3368697E-3],"split_indices":[1955,821,2016,0,0,0,0],"split_type":[0,0,0,0,0,0,0],"sum_hessian":[2.7386017E1,1.3550241E1,1.3835776E1,9.439282E0,4.110959E0,9.101799E0,4.733978E0],"tree_param":{"num_deleted":"0","num_feature":"2048","num_nodes":"7","size_leaf_vector":"1"}},{"base_weights":[4.5427985E-2,-6.7453077E-3,8.731733E-1,6.052156E-3,-6.6930096E-4],"categories":[],"categories_nodes":[],"categories_segments":[],"categories_sizes":[],"default_left":[0,0,0,0,0],"id":114,"left_children":[1,-1,3,-1,-1],"loss_changes":[3.2737034E1,0E0,6.2083626E0,0E0,0E0],"parents":[2147483647,0,0,2,2],"right_children":[2,-1,4,-1,-1],"split_conditions":[2.1154916E0,-6.7453077E-3,9.7381216E-1,6.052156E-3,-6.6930096E-4],"split_indices":[1616,0,762,0,0],"split_type":[0,0,0,0,0],"sum_hessian":[2.6344984E1,9.573975E0,1.677101E1,1.2419606E1,4.3514037E0],"tree_param":{"num_deleted":"0","num_feature":"2048","num_nodes":"5","size_leaf_vector":"1"}},{"base_weights":[4.31211E-3,-9.983381E-1,9.201565E-1,-7.928462E-3,1.1945466E-3,6.0025514E-3,4.357253E-4],"categories":[],"categories_nodes":[],"categories_segments":[],"categories_sizes":[],"default_left":[0,0,0,0,0,0,0],"id":115,"left_children":[1,3,5,-1,-1,-1,-1],"loss_changes":[2.7364086E1,1.0728099E1,3.520362E0,0E0,0E0,0E0,0E0],"parents":[2147483647,0,0,1,1,2,2],"right_children":[2,4,6,-1,-1,-1,-1],"split_conditions":[9.4564396E-1,2.747597E-2,6.9860315E-1,-7.928462E-3,1.1945466E-3,6.0025514E-3,4.357253E-4],"split_indices":[1877,732,218,0,0,0,0],"split_type":[0,0,0,0,0,0,0],"sum_hessian":[2.7800022E1,1.3222867E1,1.4577154E1,8.7808275E0,4.4420395E0,1.0567455E1,4.0096984E0],"tree_param":{"num_deleted":"0","num_feature":"2048","num_nodes":"7","size_leaf_vector":"1"}},{"base_weights":[-3.777162E-2,-1.0456998E0,5.554082E-3,-7.994574E-3,1.7253823E-4],"categories":[],"categories_nodes":[],"categories_segments":[],"categories_sizes":[],"default_left":[0,0,0,0,0],"id":116,"left_children":[1,3,-1,-1,-1],"loss_changes":[3.2062332E1,8.877064E0,0E0,0E0,0E0],"parents":[2147483647,0,0,1,1],"right_children":[2,4,-1,-1,-1],"split_conditions":[3.176912E0,5.6433767E-2,5.554082E-3,-7.994574E-3,1.7253823E-4],"split_indices":[1616,1503,0,0,0],"split_type":[0,0,0,0,0],"sum_hessian":[2.56922E1,1.37363405E1,1.1955859E1,8.772617E0,4.9637227E0],"tree_param":{"num_deleted":"0","num_feature":"2048","num_nodes":"5","size_leaf_vector":"1"}},{"base_weights":[8.20428E-2,-9.6194506E-1,5.6480533E-3,-7.955268E-3,2.5637918E-3],"categories":[],"categories_nodes":[],"categories_segments":[],"categories_sizes":[],"default_left":[0,0,0,0,0],"id":117,"left_children":[1,3,-1,-1,-1],"loss_changes":[3.182893E1,1.438429E1,0E0,0E0,0E0],"parents":[2147483647,0,0,1,1],"right_children":[2,4,-1,-1,-1],"split_conditions":[3.176912E0,1.2357975E0,5.6480533E-3,-7.955268E-3,2.5637918E-3],"split_indices":[1616,802,0,0,0],"split_type":[0,0,0,0,0],"sum_hessian":[2.7108337E1,1.3613524E1,1.3494812E1,9.492084E0,4.121441E0],"tree_param":{"num_deleted":"0","num_feature":"2048","num_nodes":"5","size_leaf_vector":"1"}},{"base_weights":[-4.644448E-3,-9.778694E-1,5.5593834E-3,1.4482185E-3,-8.089906E-3],"categories":[],"categories_nodes":[],"categories_segments":[],"categories_sizes":[],"default_left":[0,0,0,0,0],"id":118,"left_children":[1,3,-1,-1,-1],"loss_changes":[3.0247982E1,1.2551238E1,0E0,0E0,0E0],"parents":[2147483647,0,0,1,1],"right_children":[2,4,-1,-1,-1],"split_conditions":[3.176912E0,2.5955687E0,5.5593834E-3,1.4482185E-3,-8.089906E-3],"split_indices":[1616,1570,0,0,0],"split_type":[0,0,0,0,0],"sum_hessian":[2.5837242E1,1.38756E1,1.1961643E1,4.834495E0,9.041104E0],"tree_param":{"num_deleted":"0","num_feature":"2048","num_nodes":"5","size_leaf_vector":"1"}},{"base_weights":[1.5062614E-2,-1.2749721E0,9.1071457E-1,-2.8914623E-3,-7.7536944E-3,6.0555777E-3,-2.3545948E-4],"categories":[],"categories_nodes":[],"categories_segments":[],"categories_sizes":[],"default_left":[0,0,0,0,0,0,0],"id":119,"left_children":[1,3,5,-1,-1,-1,-1],"loss_changes":[3.5003174E1,1.4672604E0,5.2123957E0,0E0,0E0,0E0,0E0],"parents":[2147483647,0,0,1,1,2,2],"right_children":[2,4,6,-1,-1,-1,-1],"split_conditions":[2.2682211E0,9.740327E-2,1.3585591E-1,-2.8914623E-3,-7.7536944E-3,6.0555777E-3,-2.3545948E-4],"split_indices":[1616,519,563,0,0,0,0],"split_type":[0,0,0,0,0,0,0],"sum_hessian":[2.8292913E1,1.1415764E1,1.687715E1,4.125829E0,7.2899346E0,1.26543E1,4.2228503E0],"tree_param":{"num_deleted":"0","num_feature":"2048","num_nodes":"7","size_leaf_vector":"1"}},{"base_weights":[1.5642282E-2,-7.096472E-3,7.8129876E-1,6.0748057E-3,-1.8036022E-3],"categories":[],"categories_nodes":[],"categories_segments":[],"categories_sizes":[],"default_left":[0,0,0,0,0],"id":120,"left_children":[1,-1,3,-1,-1],"loss_changes":[3.1976744E1,0E0,9.843493E0,0E0,0E0],"parents":[2147483647,0,0,2,2],"right_children":[2,-1,4,-1,-1],"split_conditions":[1.7705418E0,-7.096472E-3,1.3585591E-1,6.0748057E-3,-1.8036022E-3],"split_indices":[1616,0,563,0,0],"split_type":[0,0,0,0,0],"sum_hessian":[2.7101494E1,9.127901E0,1.7973595E1,1.29869175E1,4.986676E0],"tree_param":{"num_deleted":"0","num_feature":"2048","num_nodes":"5","size_leaf_vector":"1"}},{"base_weights":[3.8663767E-2,-9.80553E-1,5.9185964E-3,-7.901402E-3,2.2431028E-3],"categories":[],"categories_nodes":[],"categories_segments":[],"categories_sizes":[],"default_left":[0,0,0,0,0],"id":121,"left_children":[1,3,-1,-1,-1],"loss_changes":[3.4228313E1,1.4033125E1,0E0,0E0,0E0],"parents":[2147483647,0,0,1,1],"right_children":[2,4,-1,-1,-1],"split_conditions":[3.0663912E0,1.6395179E0,5.9185964E-3,-7.901402E-3,2.2431028E-3],"split_indices":[1616,138,0,0,0],"split_type":[0,0,0,0,0],"sum_hessian":[2.733238E1,1.4532181E1,1.28002E1,1.0167031E1,4.3651495E0],"tree_param":{"num_deleted":"0","num_feature":"2048","num_nodes":"5","size_leaf_vector":"1"}},{"base_weights":[6.575395E-2,-1.052357E0,5.9132837E-3,5.1613484E-4,-7.789884E-3],"categories":[],"categories_nodes":[],"categories_segments":[],"categories_sizes":[],"default_left":[0,0,0,0,0],"id":122,"left_children":[1,3,-1,-1,-1],"loss_changes":[3.3756504E1,8.083202E0,0E0,0E0,0E0],"parents":[2147483647,0,0,1,1],"right_children":[2,4,-1,-1,-1],"split_conditions":[3.176912E0,6.0185462E-2,5.9132837E-3,5.1613484E-4,-7.789884E-3],"split_indices":[1616,1274,0,0,0],"split_type":[0,0,0,0,0],"sum_hessian":[2.503305E1,1.2534165E1,1.2498886E1,4.0512285E0,8.482936E0],"tree_param":{"num_deleted":"0","num_feature":"2048","num_nodes":"5","size_leaf_vector":"1"}},{"base_weights":[-1.23040035E-1,-1.0965141E0,5.5223214E-3,-7.96549E-3,9.2717126E-4],"categories":[],"categories_nodes":[],"categories_segments":[],"categories_sizes":[],"default_left":[0,0,0,0,0],"id":123,"left_children":[1,3,-1,-1,-1],"loss_changes":[3.5125828E1,1.0708405E1,0E0,0E0,0E0],"parents":[2147483647,0,0,1,1],"right_children":[2,4,-1,-1,-1],"split_conditions":[3.176912E0,1.2698449E-1,5.5223214E-3,-7.96549E-3,9.2717126E-4],"split_indices":[1616,1912,0,0,0],"split_type":[0,0,0,0,0],"sum_hessian":[2.7381962E1,1.5335211E1,1.2046751E1,1.0884142E1,4.4510684E0],"tree_param":{"num_deleted":"0","num_feature":"2048","num_nodes":"5","size_leaf_vector":"1"}},{"base_weights":[-6.711834E-2,-1.039244E0,5.489694E-3,-7.9093035E-3,1.4700688E-3],"categories":[],"categories_nodes":[],"categories_segments":[],"categories_sizes":[],"default_left":[0,0,0,0,0],"id":124,"left_children":[1,3,-1,-1,-1],"loss_changes":[3.154986E1,1.1441923E1,0E0,0E0,0E0],"parents":[2147483647,0,0,1,1],"right_children":[2,4,-1,-1,-1],"split_conditions":[3.176912E0,1.4763051E0,5.489694E-3,-7.9093035E-3,1.4700688E-3],"split_indices":[1616,138,0,0,0],"split_type":[0,0,0,0,0],"sum_hessian":[2.5849644E1,1.4155141E1,1.1694503E1,9.93342E0,4.2217207E0],"tree_param":{"num_deleted":"0","num_feature":"2048","num_nodes":"5","size_leaf_vector":"1"}},{"base_weights":[2.7530773E-2,-1.0834602E0,5.9054433E-3,-7.885809E-3,6.853346E-4],"categories":[],"categories_nodes":[],"categories_segments":[],"categories_sizes":[],"default_left":[0,0,0,0,0],"id":125,"left_children":[1,3,-1,-1,-1],"loss_changes":[3.652173E1,8.982714E0,0E0,0E0,0E0],"parents":[2147483647,0,0,1,1],"right_children":[2,4,-1,-1,-1],"split_conditions":[3.0663912E0,1.08988315E-1,5.9054433E-3,-7.885809E-3,6.853346E-4],"split_indices":[1616,658,0,0,0],"split_type":[0,0,0,0,0],"sum_hessian":[2.6497894E1,1.3524528E1,1.2973367E1,9.427223E0,4.0973043E0],"tree_param":{"num_deleted":"0","num_feature":"2048","num_nodes":"5","size_leaf_vector":"1"}},{"base_weights":[2.8402973E-2,-6.5210974E-3,7.773373E-1,-1.1310356E-3,6.1168284E-3],"categories":[],"categories_nodes":[],"categories_segments":[],"categories_sizes":[],"default_left":[0,0,0,0,0],"id":126,"left_children":[1,-1,3,-1,-1],"loss_changes":[2.7231514E1,0E0,8.098511E0,0E0,0E0],"parents":[2147483647,0,0,2,2],"right_children":[2,-1,4,-1,-1],"split_conditions":[6.53185E-1,-6.5210974E-3,1.4370509E-2,-1.1310356E-3,6.1168284E-3],"split_indices":[598,0,1958,0,0],"split_type":[0,0,0,0,0],"sum_hessian":[2.5274286E1,8.8220005E0,1.6452286E1,5.2070565E0,1.124523E1],"tree_param":{"num_deleted":"0","num_feature":"2048","num_nodes":"5","size_leaf_vector":"1"}},{"base_weights":[6.040015E-2,-1.1335331E0,5.89896E-3,-7.7940878E-3,-7.241427E-4],"categories":[],"categories_nodes":[],"categories_segments":[],"categories_sizes":[],"default_left":[0,0,0,0,0],"id":127,"left_children":[1,3,-1,-1,-1],"loss_changes":[3.6800453E1,5.3686676E0,0E0,0E0,0E0],"parents":[2147483647,0,0,1,1],"right_children":[2,4,-1,-1,-1],"split_conditions":[3.176912E0,1.16316445E-1,5.89896E-3,-7.7940878E-3,-7.241427E-4],"split_indices":[1616,1104,0,0,0],"split_type":[0,0,0,0,0],"sum_hessian":[2.5534388E1,1.2345366E1,1.3189022E1,8.2219925E0,4.1233735E0],"tree_param":{"num_deleted":"0","num_feature":"2048","num_nodes":"5","size_leaf_vector":"1"}},{"base_weights":[-2.3636684E-2,-7.1095685E-3,8.85383E-1,5.9870253E-3,-3.2397083E-4],"categories":[],"categories_nodes":[],"categories_segments":[],"categories_sizes":[],"default_left":[0,0,0,0,0],"id":128,"left_children":[1,-1,3,-1,-1],"loss_changes":[3.4696003E1,0E0,4.9960947E0,0E0,0E0],"parents":[2147483647,0,0,2,2],"right_children":[2,-1,4,-1,-1],"split_conditions":[2.1154916E0,-7.1095685E-3,1.248635E0,5.9870253E-3,-3.2397083E-4],"split_indices":[1616,0,434,0,0],"split_type":[0,0,0,0,0],"sum_hessian":[2.5302193E1,9.750501E0,1.5551692E1,1.1519287E1,4.0324054E0],"tree_param":{"num_deleted":"0","num_feature":"2048","num_nodes":"5","size_leaf_vector":"1"}},{"base_weights":[5.0297353E-2,-9.2502254E-1,5.4411814E-3,1.5210878E-3,-7.657113E-3],"categories":[],"categories_nodes":[],"categories_segments":[],"categories_sizes":[],"default_left":[0,0,0,0,0],"id":129,"left_children":[1,3,-1,-1,-1],"loss_changes":[2.5720379E1,1.0258589E1,0E0,0E0,0E0],"parents":[2147483647,0,0,1,1],"right_children":[2,4,-1,-1,-1],"split_conditions":[3.0663912E0,2.9714841E-2,5.4411814E-3,1.5210878E-3,-7.657113E-3],"split_indices":[1616,696,0,0,0],"split_type":[0,0,0,0,0],"sum_hessian":[2.3411295E1,1.21208515E1,1.1290443E1,4.1632714E0,7.95758E0],"tree_param":{"num_deleted":"0","num_feature":"2048","num_nodes":"5","size_leaf_vector":"1"}},{"base_weights":[-6.6658154E-2,-9.806048E-1,9.673147E-1,-7.877232E-3,1.3376513E-3,2.1742282E-3,5.830697E-3],"categories":[],"categories_nodes":[],"categories_segments":[],"categories_sizes":[],"default_left":[0,0,0,0,0,0,0],"id":130,"left_children":[1,3,5,-1,-1,-1,-1],"loss_changes":[2.624897E1,1.1358125E1,8.595228E-1,0E0,0E0,0E0,0E0],"parents":[2147483647,0,0,1,1,2,2],"right_children":[2,4,6,-1,-1,-1,-1],"split_conditions":[3.7086475E-1,1.9260319E-1,7.9439744E-2,-7.877232E-3,1.3376513E-3,2.1742282E-3,5.830697E-3],"split_indices":[1809,1906,1646,0,0,0,0],"split_type":[0,0,0,0,0,0,0],"sum_hessian":[2.5772898E1,1.3713013E1,1.2059885E1,9.11481E0,4.5982027E0,4.1590304E0,7.9008546E0],"tree_param":{"num_deleted":"0","num_feature":"2048","num_nodes":"7","size_leaf_vector":"1"}},{"base_weights":[1.526777E-1,-6.2399236E-3,8.7154853E-1,6.0711154E-3,-8.3210354E-4],"categories":[],"categories_nodes":[],"categories_segments":[],"categories_sizes":[],"default_left":[0,0,0,0,0],"id":131,"left_children":[1,-1,3,-1,-1],"loss_changes":[2.6687155E1,0E0,6.4004774E0,0E0,0E0],"parents":[2147483647,0,0,2,2],"right_children":[2,-1,4,-1,-1],"split_conditions":[7.103715E-1,-6.2399236E-3,1.4024876E0,6.0711154E-3,-8.3210354E-4],"split_indices":[598,0,1038,0,0],"split_type":[0,0,0,0,0],"sum_hessian":[2.4427904E1,8.030727E0,1.6397177E1,1.2206995E1,4.1901827E0],"tree_param":{"num_deleted":"0","num_feature":"2048","num_nodes":"5","size_leaf_vector":"1"}},{"base_weights":[2.513058E-2,-9.803962E-1,5.7956176E-3,-7.6985997E-3,1.3478544E-3],"categories":[],"categories_nodes":[],"categories_segments":[],"categories_sizes":[],"default_left":[0,0,0,0,0],"id":132,"left_children":[1,3,-1,-1,-1],"loss_changes":[3.0287085E1,1.0275972E1,0E0,0E0,0E0],"parents":[2147483647,0,0,1,1],"right_children":[2,4,-1,-1,-1],"split_conditions":[3.176912E0,4.0209725E-2,5.7956176E-3,-7.6985997E-3,1.3478544E-3],"split_indices":[1616,1078,0,0,0],"split_type":[0,0,0,0,0],"sum_hessian":[2.456337E1,1.3086247E1,1.1477121E1,8.8861475E0,4.2000995E0],"tree_param":{"num_deleted":"0","num_feature":"2048","num_nodes":"5","size_leaf_vector":"1"}},{"base_weights":[-1.8291878E-2,-9.7844195E-1,5.82608E-3,-7.6676533E-3,2.0581046E-3],"categories":[],"categories_nodes":[],"categories_segments":[],"categories_sizes":[],"default_left":[0,0,0,0,0],"id":133,"left_children":[1,3,-1,-1,-1],"loss_changes":[3.3187996E1,1.3080566E1,0E0,0E0,0E0],"parents":[2147483647,0,0,1,1],"right_children":[2,4,-1,-1,-1],"split_conditions":[3.176912E0,1.2194365E0,5.82608E-3,-7.6676533E-3,2.0581046E-3],"split_indices":[1616,598,0,0,0],"split_type":[0,0,0,0,0],"sum_hessian":[2.7204252E1,1.5119723E1,1.208453E1,1.0736385E1,4.383337E0],"tree_param":{"num_deleted":"0","num_feature":"2048","num_nodes":"5","size_leaf_vector":"1"}},{"base_weights":[7.013229E-2,-9.409193E-1,5.4882485E-3,-7.522694E-3,1.7540192E-3],"categories":[],"categories_nodes":[],"categories_segments":[],"categories_sizes":[],"default_left":[0,0,0,0,0],"id":134,"left_children":[1,3,-1,-1,-1],"loss_changes":[2.8461147E1,1.0615715E1,0E0,0E0,0E0],"parents":[2147483647,0,0,1,1],"right_children":[2,4,-1,-1,-1],"split_conditions":[3.176912E0,1.1837411E0,5.4882485E-3,-7.522694E-3,1.7540192E-3],"split_indices":[1616,598,0,0,0],"split_type":[0,0,0,0,0],"sum_hessian":[2.540051E1,1.2840412E1,1.25601E1,8.830413E0,4.009999E0],"tree_param":{"num_deleted":"0","num_feature":"2048","num_nodes":"5","size_leaf_vector":"1"}},{"base_weights":[-4.2342745E-2,-6.930803E-3,6.829919E-1,5.4870937E-3,-2.44916E-3],"categories":[],"categories_nodes":[],"categories_segments":[],"categories_sizes":[],"default_left":[0,0,0,0,0],"id":135,"left_children":[1,-1,3,-1,-1],"loss_changes":[2.8002176E1,0E0,9.626635E0,0E0,0E0],"parents":[2147483647,0,0,2,2],"right_children":[2,-1,4,-1,-1],"split_conditions":[7.103715E-1,-6.930803E-3,4.2935002E-1,5.4870937E-3,-2.44916E-3],"split_indices":[598,0,519,0,0],"split_type":[0,0,0,0,0],"sum_hessian":[2.674999E1,9.062585E0,1.7687407E1,1.312308E1,4.564326E0],"tree_param":{"num_deleted":"0","num_feature":"2048","num_nodes":"5","size_leaf_vector":"1"}},{"base_weights":[-3.372643E-2,-6.9543915E-3,7.229482E-1,5.5162343E-3,-2.585775E-3],"categories":[],"categories_nodes":[],"categories_segments":[],"categories_sizes":[],"default_left":[0,0,0,0,0],"id":136,"left_children":[1,-1,3,-1,-1],"loss_changes":[2.954522E1,0E0,9.297512E0,0E0,0E0],"parents":[2147483647,0,0,2,2],"right_children":[2,-1,4,-1,-1],"split_conditions":[6.53185E-1,-6.9543915E-3,4.9921075E-1,5.5162343E-3,-2.585775E-3],"split_indices":[598,0,519,0,0],"split_type":[0,0,0,0,0],"sum_hessian":[2.678497E1,9.292769E0,1.7492199E1,1.3477513E1,4.014686E0],"tree_param":{"num_deleted":"0","num_feature":"2048","num_nodes":"5","size_leaf_vector":"1"}},{"base_weights":[4.4159904E-2,-9.812802E-1,5.5026608E-3,-7.5017195E-3,1.1006707E-3],"categories":[],"categories_nodes":[],"categories_segments":[],"categories_sizes":[],"default_left":[0,0,0,0,0],"id":137,"left_children":[1,3,-1,-1,-1],"loss_changes":[3.09324E1,9.389912E0,0E0,0E0,0E0],"parents":[2147483647,0,0,1,1],"right_children":[2,4,-1,-1,-1],"split_conditions":[3.0663912E0,1.2194365E0,5.5026608E-3,-7.5017195E-3,1.1006707E-3],"split_indices":[1616,598,0,0,0],"split_type":[0,0,0,0,0],"sum_hessian":[2.6557234E1,1.3507181E1,1.3050053E1,9.264165E0,4.243017E0],"tree_param":{"num_deleted":"0","num_feature":"2048","num_nodes":"5","size_leaf_vector":"1"}},{"base_weights":[8.059396E-2,-9.2365706E-1,9.902408E-1,-7.5397026E-3,1.3036273E-3,1.882207E-3,5.983888E-3],"categories":[],"categories_nodes":[],"categories_segments":[],"categories_sizes":[],"default_left":[0,0,0,0,0,0,0],"id":138,"left_children":[1,3,5,-1,-1,-1,-1],"loss_changes":[2.5466225E1,9.599452E0,1.383318E0,0E0,0E0,0E0,0E0],"parents":[2147483647,0,0,1,1,2,2],"right_children":[2,4,6,-1,-1,-1,-1],"split_conditions":[1.2194365E0,2.0999225E-2,1.8623605E-2,-7.5397026E-3,1.3036273E-3,1.882207E-3,5.983888E-3],"split_indices":[598,1527,965,0,0,0,0],"split_type":[0,0,0,0,0,0,0],"sum_hessian":[2.5875254E1,1.2285574E1,1.3589681E1,8.049717E0,4.235857E0,4.1443343E0,9.445346E0],"tree_param":{"num_deleted":"0","num_feature":"2048","num_nodes":"7","size_leaf_vector":"1"}},{"base_weights":[1.8817177E-1,-6.097121E-3,1.0070754E0,2.002721E-3,5.896579E-3],"categories":[],"categories_nodes":[],"categories_segments":[],"categories_sizes":[],"default_left":[0,0,0,0,0],"id":139,"left_children":[1,-1,3,-1,-1],